{"learner":{"attributes":{"scikit_learn":"{\"_estimator_type\": \"classifier\"}"},"feature_names":[],"feature_types":[],"gradient_booster":{"model":{"gbtree_model_param":{"num_parallel_tree":"1","num_trees":"300"},"iteration_indptr":[0,3,6,9,12,15,18,21,24,27,30,33,36,39,42,45,48,51,54,57,60,63,66,69,72,75,78,81,84,87,90,93,96,99,102,105,108,111,114,117,120,123,126,129,132,135,138,141,144,147,150,153,156,159,162,165,168,171,174,177,180,183,186,189,192,195,198,201,204,207,210,213,216,219,222,225,228,231,234,237,240,243,246,249,252,255,258,261,264,267,270,273,276,279,282,285,288,291,294,297,300],"tree_info":[0,1,2,0,1,2,0,1,2,0,1,2,0,1,2,0,1,2,0,1,2,0,1,2,0,1,2,0,1,2,0,1,2,0,1,2,0,1,2,0,1,2,0,1,2,0,1,2,0,1,2,0,1,2,0,1,2,0,1,2,0,1,2,0,1,2,0,1,2,0,1,2,0,1,2,0,1,2,0,1,2,0,1,2,0,1,2,0,1,2,0,1,2,0,1,2,0,1,2,0,1,2,0,1,2,0,1,2,0,1,2,0,1,2,0,1,2,0,1,2,0,1,2,0,1,2,0,1,2,0,1,2,0,1,2,0,1,2,0,1,2,0,1,2,0,1,2,0,1,2,0,1,2,0,1,2,0,1,2,0,1,2,0,1,2,0,1,2,0,1,2,0,1,2,0,1,2,0,1,2,0,1,2,0,1,2,0,1,2,0,1,2,0,1,2,0,1,2,0,1,2,0,1,2,0,1,2,0,1,2,0,1,2,0,1,2,0,1,2,0,1,2,0,1,2,0,1,2,0,1,2,0,1,2,0,1,2,0,1,2,0,1,2,0,1,2,0,1,2,0,1,2,0,1,2,0,1,2,0,1,2,0,1,2,0,1,2,0,1,2,0,1,2,0,1,2,0,1,2,0,1,2,0,1,2,0,1,2,0,1,2,0,1,2,0,1,2,0,1,2],"trees":[{"base_weights":[-6.342938E-8,-7.481144E-1,7.1145195E-1,-2.2497915E-1,-3.933585E-1,-7.3094743E-1,1.0382895E0,3.6651987E-1,-2.2030437E-1,-2.2489084E-1,1.3076757E-1,-2.245089E-1,1.1308644E0,1.1097963E0,-2.1598911E-1,8.9991486E-1,1.2760206E0,-1.697587E-1,4.2566377E-1,9.9759156E-1,-4.8483017E-1,-2.1221188E-1,1.2822429E0,3.046658E-1,-2.1826765E-1,-2.2382528E-1,2.886049E-1,3.9200345E-1,3.3895624E-1],"categories":[],"categories_nodes":[],"categories_segments":[],"categories_sizes":[],"default_left":[1,1,0,0,0,0,1,0,0,0,0,0,0,0,0,0,1,0,0,0,0,0,0,0,0,0,0,0,0],"id":0,"left_children":[1,3,5,-1,7,9,11,-1,-1,-1,13,-1,15,17,-1,19,21,-1,-1,23,25,-1,27,-1,-1,-1,-1,-1,-1],"loss_changes":[1.1828784E4,6.6845703E0,5.370931E3,0E0,3.244118E1,3.3996704E1,1.536957E3,0E0,0E0,0E0,3.8723564E1,0E0,2.9487305E2,1.1971239E1,0E0,4.6189526E2,6.7793945E1,0E0,0E0,9.948682E1,8.593563E1,0E0,1.8643555E1,0E0,0E0,0E0,0E0,0E0,0E0],"parents":[2147483647,0,0,1,1,2,2,4,4,5,5,6,6,10,10,12,12,13,13,15,15,16,16,19,19,20,20,22,22],"right_children":[2,4,6,-1,8,10,12,-1,-1,-1,14,-1,16,18,-1,20,22,-1,-1,24,26,-1,28,-1,-1,-1,-1,-1,-1],"split_conditions":[5.0011E1,4.9979195E1,3.22278E3,-2.2497915E-1,3.31648E3,3.21419E3,1.8014166E1,3.6651987E-1,-2.2030437E-1,-2.2489084E-1,3.21852E3,-2.245089E-1,3.33941E3,1.415E0,-2.1598911E-1,3.319249E3,3.286534E3,-1.697587E-1,4.2566377E-1,3.06E2,3.3363896E3,-2.1221188E-1,3.359991E3,3.046658E-1,-2.1826765E-1,-2.2382528E-1,2.886049E-1,3.9200345E-1,3.3895624E-1],"split_indices":[16,16,8,0,6,7,17,0,0,0,0,0,8,12,0,15,15,0,0,4,14,0,15,0,0,0,0,0,0],"split_type":[0,0,0,0,0,0,0,0,0,0,0,0,0,0,0,0,0,0,0,0,0,0,0,0,0,0,0,0,0],"sum_hessian":[2.222222E4,1.0831989E4,1.1390231E4,1.0775712E4,5.6276814E1,2.103931E3,9.286301E3,9.36007E0,4.6916744E1,2.0593972E3,4.453367E1,4.5711456E2,8.829187E3,2.0563965E1,2.3969704E1,3.4103608E3,5.418825E3,3.073039E0,1.7490925E1,3.1859133E3,2.244474E2,1.659441E1,5.402231E3,3.153493E3,3.2420563E1,1.9052843E2,3.3918983E1,4.6491753E3,7.530558E2],"tree_param":{"num_deleted":"0","num_feature":"20","num_nodes":"29","size_leaf_vector":"1"}},{"base_weights":[-1.6666498E-8,-2.9607216E-1,4.498772E-1,4.4942638E-1,-3.7523177E-1,4.47618E-1,-3.9526686E-1,-5.725302E-1,-3.663823E-1,-5.880334E-1,4.266653E-1,-3.1214288E-1,-4.4377118E-1,-1.8641378E-1,-1.4783365E-1,-1.0312319E-1,8.774399E-2,4.6225555E-2,-1.590756E-1],"categories":[],"categories_nodes":[],"categories_segments":[],"categories_sizes":[],"default_left":[0,1,0,0,1,0,0,0,0,0,0,0,0,0,0,0,0,0,0],"id":1,"left_children":[1,3,-1,-1,5,-1,7,9,11,13,-1,15,17,-1,-1,-1,-1,-1,-1],"loss_changes":[9.867266E3,2.6365247E3,0E0,0E0,6.6562866E2,0E0,8.984619E1,7.699347E1,6.3356567E1,7.457947E0,0E0,1.7009229E2,3.222367E2,0E0,0E0,0E0,0E0,0E0,0E0],"parents":[2147483647,0,0,1,1,4,4,6,6,7,7,8,8,9,9,11,11,12,12],"right_children":[2,4,-1,-1,6,-1,8,10,12,14,-1,16,18,-1,-1,-1,-1,-1,-1],"split_conditions":[6.88742E3,1.8014166E1,4.498772E-1,4.4942638E-1,3.2022102E3,4.47618E-1,3.0282442E1,3.3604006E3,3.33941E3,3.28489E3,4.266653E-1,3.33026E3,4.9636147E1,-1.8641378E-1,-1.4783365E-1,-1.0312319E-1,8.774399E-2,4.6225555E-2,-1.590756E-1],"split_indices":[5,17,0,0,15,0,16,14,8,7,0,0,16,0,0,0,0,0,0],"split_type":[0,0,0,0,0,0,0,0,0,0,0,0,0,0,0,0,0,0,0],"sum_hessian":[2.222222E4,1.8558852E4,3.6633699E3,7.834713E2,1.7775379E4,1.8791634E2,1.7587463E4,2.4616426E3,1.512582E4,2.443358E3,1.8284582E1,8.895958E3,6.229863E3,1.8057087E3,6.376491E2,8.454508E3,4.4144965E2,7.8717914E2,5.4426836E3],"tree_param":{"num_deleted":"0","num_feature":"20","num_nodes":"19","size_leaf_vector":"1"}},{"base_weights":[-6.141245E-8,7.930004E-1,-2.2498034E-1,1.1178674E0,-7.31007E-1,-2.2401096E-1,1.1666168E0,-1.806809E-2,-2.2487843E-1,1.1896616E0,-2.2283867E-1,-2.1743268E-1,1.0060655E0,1.2335838E0,7.979284E-1,4.1713333E-1,-1.7700154E-1,2.8660092E-1,3.7734392E-1,-1.7378153E-1,3.7181792E-1],"categories":[],"categories_nodes":[],"categories_segments":[],"categories_sizes":[],"default_left":[0,0,0,1,0,0,0,0,0,0,0,0,0,0,0,0,0,0,0,0,0],"id":2,"left_children":[1,3,-1,5,7,-1,9,11,-1,13,-1,-1,15,17,19,-1,-1,-1,-1,-1,-1],"loss_changes":[1.3216705E4,5.34886E3,0E0,8.102461E2,2.5146973E1,0E0,3.8272754E2,3.638743E1,0E0,1.4655078E2,0E0,0E0,1.3418478E1,5.076465E1,5.280391E2,0E0,0E0,0E0,0E0,0E0,0E0],"parents":[2147483647,0,0,1,1,3,3,4,4,6,6,7,7,9,9,12,12,13,13,14,14],"right_children":[2,4,-1,6,8,-1,10,12,-1,14,-1,-1,16,18,20,-1,-1,-1,-1,-1,-1],"split_conditions":[5.0011E1,3.360695E3,-2.2498034E-1,1.8014166E1,3.364738E3,-2.2401096E-1,3.3700938E3,3.36419E3,-2.2487843E-1,3.32996E3,-2.2283867E-1,-2.1743268E-1,3.3643142E3,3.2206165E3,3.359991E3,4.1713333E-1,-1.7700154E-1,2.8660092E-1,3.7734392E-1,-1.7378153E-1,3.7181792E-1],"split_indices":[16,10,0,17,9,0,15,0,0,3,0,0,14,15,15,0,0,0,0,0,0],"split_type":[0,0,0,0,0,0,0,0,0,0,0,0,0,0,0,0,0,0,0,0,0],"sum_hessian":[2.222222E4,1.0800951E4,1.142127E4,8.903328E3,1.8976228E3,2.2648297E2,8.676846E3,4.826787E1,1.8493549E3,8.573745E3,1.03100464E2,2.8732916E1,1.9534958E1,7.7074194E3,8.663255E2,1.5847311E1,3.6876469E0,6.206204E2,7.0867993E3,2.1021703E2,6.5610846E2],"tree_param":{"num_deleted":"0","num_feature":"20","num_nodes":"21","size_leaf_vector":"1"}},{"base_weights":[-3.8521646E-3,-6.6977113E-1,5.103162E-1,-2.0150843E-1,-3.1763965E-1,-2.0083086E-1,7.120099E-1,3.2119423E-1,-2.0043793E-1,-2.0014253E-1,7.6665986E-1,-7.2434443E-1,7.790273E-1,-1.9826387E-1,-2.5223753E-1,6.3418096E-1,8.6795866E-1,2.1460472E-1,-2.5875038E-2,2.6568684E-1,2.2727597E-1],"categories":[],"categories_nodes":[],"categories_segments":[],"categories_sizes":[],"default_left":[1,1,0,0,0,0,1,0,0,0,1,1,0,0,0,0,0,0,0,0,0],"id":3,"left_children":[1,3,5,-1,7,-1,9,-1,-1,-1,11,13,15,-1,-1,17,19,-1,-1,-1,-1],"loss_changes":[7.283499E3,6.063965E0,2.8567766E3,0E0,2.6140339E1,0E0,7.731919E2,0E0,0E0,0E0,1.824082E2,4.7706604E-2,1.2544043E2,0E0,0E0,2.178518E2,1.1138184E1,0E0,0E0,0E0,0E0],"parents":[2147483647,0,0,1,1,2,2,4,4,6,6,10,10,11,11,12,12,15,15,16,16],"right_children":[2,4,6,-1,8,-1,10,-1,-1,-1,12,14,16,-1,-1,18,20,-1,-1,-1,-1],"split_conditions":[5.0011E1,4.9979195E1,3.21419E3,-2.0150843E-1,3.31648E3,-2.0083086E-1,1.8014166E1,3.2119423E-1,-2.0043793E-1,-2.0014253E-1,3.205415E3,3.2022102E3,3.33941E3,-1.9826387E-1,-2.5223753E-1,3.306414E3,3.359991E3,2.1460472E-1,-2.5875038E-2,2.6568684E-1,2.2727597E-1],"split_indices":[16,16,7,0,6,0,17,0,0,0,15,15,8,0,0,15,15,0,0,0,0],"split_type":[0,0,0,0,0,0,0,0,0,0,0,0,0,0,0,0,0,0,0,0,0],"sum_hessian":[2.1270244E4,9.267391E3,1.2002853E4,9.216139E3,5.1252888E1,1.7521002E3,1.0250753E4,9.916929E0,4.1335957E1,3.902844E2,9.860468E3,8.064322E1,9.779825E3,5.6516533E1,2.4126686E1,3.7234363E3,6.0563887E3,3.3464163E3,3.7702005E2,5.214783E3,8.4160565E2],"tree_param":{"num_deleted":"0","num_feature":"20","num_nodes":"21","size_leaf_vector":"1"}},{"base_weights":[6.715267E-3,-2.3283142E-1,3.0270293E-1,3.0255666E-1,-2.9974288E-1,9.031261E-1,-3.1895497E-1,2.6068553E-1,1.0562177E0,-4.943017E-1,-2.9223964E-1,2.9762217E-1,-1.8282667E-1,3.021098E-1,4.2731515E-1,-5.0843E-1,3.0588263E-1,-2.4512383E-1,-3.6144704E-1,3.736475E-1,-1.53259E-1,-1.0462929E-1,-3.1539176E-2,4.2804535E-2,-1.3235961E-1],"categories":[],"categories_nodes":[],"categories_segments":[],"categories_sizes":[],"default_left":[0,1,0,0,1,0,0,0,1,0,0,0,0,0,0,0,0,0,0,0,0,0,0,0,0],"id":4,"left_children":[1,3,-1,-1,5,7,9,11,13,15,17,-1,-1,-1,-1,19,-1,21,23,-1,-1,-1,-1,-1,-1],"loss_changes":[5.1305474E3,1.432833E3,0E0,0E0,3.784884E2,2.505426E1,7.531702E1,3.298928E1,2.3257904E0,4.6042175E1,4.550183E1,0E0,0E0,0E0,0E0,9.638428E0,0E0,1.2070029E2,2.2766443E2,0E0,0E0,0E0,0E0,0E0,0E0],"parents":[2147483647,0,0,1,1,4,4,5,5,6,6,7,7,8,8,9,9,10,10,15,15,17,17,18,18],"right_children":[2,4,-1,-1,6,8,10,12,14,16,18,-1,-1,-1,-1,20,-1,22,24,-1,-1,-1,-1,-1,-1],"split_conditions":[6.88742E3,1.8014166E1,3.0270293E-1,3.0255666E-1,3.2037341E3,2.009251E1,2.9989544E1,1.9944887E1,3.2022102E3,3.3604006E3,3.33941E3,2.9762217E-1,-1.8282667E-1,3.021098E-1,4.2731515E-1,2.057559E1,3.0588263E-1,4.8686172E1,4.9478127E1,3.736475E-1,-1.53259E-1,-1.0462929E-1,-3.1539176E-2,4.2804535E-2,-1.3235961E-1],"split_indices":[5,17,0,0,15,17,16,17,15,14,8,0,0,0,0,17,0,16,16,0,0,0,0,0,0],"split_type":[0,0,0,0,0,0,0,0,0,0,0,0,0,0,0,0,0,0,0,0,0,0,0,0,0],"sum_hessian":[2.1366725E4,1.7245781E4,4.120945E3,8.813187E2,1.6364462E4,2.5653958E2,1.6107922E4,4.9888382E1,2.0665118E2,2.127371E3,1.3980551E4,2.7028664E1,2.2859718E1,1.8559235E2,2.105885E1,2.1083594E3,1.9011745E1,8.320539E3,5.6600117E3,2.213163E0,2.1061462E3,4.7801694E3,3.5403696E3,7.729875E2,4.8870244E3],"tree_param":{"num_deleted":"0","num_feature":"20","num_nodes":"25","size_leaf_vector":"1"}},{"base_weights":[-2.8918963E-3,5.7168907E-1,-2.0205963E-1,7.7493405E-1,-6.536306E-1,-1.996398E-1,8.0378693E-1,-5.1581446E-2,-2.0156123E-1,8.172743E-1,-1.9871774E-1,-2.0685904E-1,7.5206107E-1,8.463659E-1,6.037275E-1,3.0951256E-1,-1.6915536E-1,1.9073369E-1,2.595305E-1,-3.379085E-3,2.6948538E-1],"categories":[],"categories_nodes":[],"categories_segments":[],"categories_sizes":[],"default_left":[0,0,0,1,0,0,0,0,0,0,0,0,0,0,0,0,0,0,0,0,0],"id":5,"left_children":[1,3,-1,5,7,-1,9,11,-1,13,-1,-1,15,17,19,-1,-1,-1,-1,-1,-1],"loss_changes":[8.201533E3,2.8552466E3,0E0,4.0917432E2,1.7880493E1,0E0,1.9116943E2,2.5668705E1,0E0,5.8833008E1,0E0,0E0,8.746389E0,3.261133E1,2.0811661E2,0E0,0E0,0E0,0E0,0E0,0E0],"parents":[2147483647,0,0,1,1,3,3,4,4,6,6,7,7,9,9,12,12,13,13,14,14],"right_children":[2,4,-1,6,8,-1,10,12,-1,14,-1,-1,16,18,20,-1,-1,-1,-1,-1,-1],"split_conditions":[5.0011E1,3.36146E3,-2.0205963E-1,1.8014166E1,3.364738E3,-1.996398E-1,3.3700938E3,3.36419E3,-2.0156123E-1,3.32627E3,-1.9871774E-1,-2.0685904E-1,3.3643142E3,3.2206165E3,3.3591702E3,3.0951256E-1,-1.6915536E-1,1.9073369E-1,2.595305E-1,-3.379085E-3,2.6948538E-1],"split_indices":[16,6,0,17,9,0,15,0,0,3,0,0,14,15,15,0,0,0,0,0,0],"split_type":[0,0,0,0,0,0,0,0,0,0,0,0,0,0,0,0,0,0,0,0,0],"sum_hessian":[2.1282049E4,1.1461978E4,9.820072E3,9.831572E3,1.6304049E3,1.9263731E2,9.638935E3,4.805595E1,1.582349E3,9.551514E3,8.742141E1,2.6868864E1,2.1187086E1,8.403706E3,1.1478077E3,1.765183E1,3.5352557E0,6.894396E2,7.714266E3,3.7202884E2,7.7577893E2],"tree_param":{"num_deleted":"0","num_feature":"20","num_nodes":"21","size_leaf_vector":"1"}},{"base_weights":[-8.60624E-3,-6.21864E-1,4.0254954E-1,-1.8719539E-1,-2.6871082E-1,-6.011242E-1,5.504412E-1,2.8973132E-1,-1.8914981E-1,-1.8562521E-1,-3.024347E-2,-1.8478674E-1,5.885718E-1,6.7612654E-1,-2.1870823E-1,3.7094948E-1,6.404246E-1,-1.5817812E-1,2.5746104E-1,6.130279E-1,-2.9743874E-1,6.440353E-1,-1.7783159E-1,1.9489461E-1,-8.263345E-2,-2.9933122E-1,1.20780826E-1,2.0645882E-1,1.776662E-1],"categories":[],"categories_nodes":[],"categories_segments":[],"categories_sizes":[],"default_left":[1,1,0,0,0,0,1,0,0,0,0,0,0,0,0,0,0,0,0,0,0,0,0,0,0,0,0,0,0],"id":6,"left_children":[1,3,5,-1,7,9,11,-1,-1,-1,13,-1,15,17,-1,19,21,-1,-1,23,25,27,-1,-1,-1,-1,-1,-1,-1],"loss_changes":[4.855912E3,5.6208496E0,1.7116298E3,0E0,2.1999275E1,1.4885071E1,4.4728906E2,0E0,0E0,0E0,2.2908333E1,0E0,1.09573E2,5.5144157E0,0E0,3.0354214E2,3.536792E1,0E0,0E0,4.497229E1,2.451272E2,1.752002E1,0E0,0E0,0E0,0E0,0E0,0E0,0E0],"parents":[2147483647,0,0,1,1,2,2,4,4,5,5,6,6,10,10,12,12,13,13,15,15,16,16,19,19,20,20,21,21],"right_children":[2,4,6,-1,8,10,12,-1,-1,-1,14,-1,16,18,-1,20,22,-1,-1,24,26,28,-1,-1,-1,-1,-1,-1,-1],"split_conditions":[5.0011E1,4.9979195E1,3.22278E3,-1.8719539E-1,3.31648E3,3.21419E3,1.8014166E1,2.8973132E-1,-1.8914981E-1,-1.8562521E-1,3.21852E3,-1.8478674E-1,3.306E3,1.415E0,-2.1870823E-1,3.2551843E3,6.798859E3,-1.5817812E-1,2.5746104E-1,7.430308E1,3.2999153E3,3.3276375E3,-1.7783159E-1,1.9489461E-1,-8.263345E-2,-2.9933122E-1,1.20780826E-1,2.0645882E-1,1.776662E-1],"split_indices":[16,16,8,0,6,7,17,0,0,0,0,0,7,12,0,15,15,0,0,16,14,15,0,0,0,0,0,0,0],"split_type":[0,0,0,0,0,0,0,0,0,0,0,0,0,0,0,0,0,0,0,0,0,0,0,0,0,0,0,0,0],"sum_hessian":[1.9256459E4,7.728513E3,1.1527946E4,7.6816196E3,4.689372E1,1.4801017E3,1.0047845E4,1.0249908E1,3.6643806E1,1.4356896E3,4.441211E1,3.1759537E2,9.730249E3,2.2102295E1,2.2309814E1,1.8738793E3,7.8563696E3,2.6555247E0,1.944677E1,1.3757058E3,4.9817343E2,7.8339106E3,2.2459148E1,1.3215051E3,5.420067E1,2.4882243E2,2.49351E2,4.222695E3,3.6112156E3],"tree_param":{"num_deleted":"0","num_feature":"20","num_nodes":"29","size_leaf_vector":"1"}},{"base_weights":[1.632817E-2,-1.791142E-1,2.4221386E-1,2.4212968E-1,-2.3419E-1,7.129011E-1,-2.500762E-1,1.5635021E-1,2.4737068E-1,-4.2639613E-1,-2.2438355E-1,2.5713184E-1,-1.6817786E-1,-4.3954995E-1,2.5356084E-1,-1.4856677E-1,-2.622892E-1,-1.4475434E-1,-9.585239E-2,-5.150303E-2,5.2924734E-1,-4.264947E-2,-9.427157E-2],"categories":[],"categories_nodes":[],"categories_segments":[],"categories_sizes":[],"default_left":[0,1,0,0,1,0,0,0,0,0,0,0,0,0,0,0,0,0,0,0,0,0,0],"id":7,"left_children":[1,3,-1,-1,5,7,9,11,-1,13,15,-1,-1,17,-1,19,21,-1,-1,-1,-1,-1,-1],"loss_changes":[3.0343367E3,8.5502783E2,0E0,0E0,2.2445618E2,1.5170311E1,6.632184E1,2.1768398E1,0E0,3.1542145E1,3.6743103E1,0E0,0E0,9.362244E0,0E0,1.889766E2,5.3194458E1,0E0,0E0,0E0,0E0,0E0,0E0],"parents":[2147483647,0,0,1,1,4,4,5,5,6,6,7,7,9,9,10,10,13,13,15,15,16,16],"right_children":[2,4,-1,-1,6,8,10,12,-1,14,16,-1,-1,18,-1,20,22,-1,-1,-1,-1,-1,-1],"split_conditions":[6.88742E3,1.8014166E1,2.4221386E-1,2.4212968E-1,3.2037341E3,3.18793E3,2.9989544E1,3.18565E3,2.4737068E-1,3.3604006E3,3.30454E3,2.5713184E-1,-1.6817786E-1,3.28489E3,2.5356084E-1,3.30429E3,4.9979195E1,-1.4475434E-1,-9.585239E-2,-5.150303E-2,5.2924734E-1,-4.264947E-2,-9.427157E-2],"split_indices":[5,17,0,0,15,0,16,7,0,14,8,0,0,7,0,6,16,0,0,0,0,0,0],"split_type":[0,0,0,0,0,0,0,0,0,0,0,0,0,0,0,0,0,0,0,0,0,0,0],"sum_hessian":[1.9624455E4,1.5737112E4,3.8873416E3,8.3164435E2,1.4905468E4,2.4517104E2,1.4660297E4,4.1372257E1,2.0379878E2,1.8625623E3,1.2797735E4,2.0823454E1,2.0548803E1,1.8441403E3,1.8422045E1,4.267345E3,8.53039E3,1.3558468E3,4.882934E2,4.217301E3,5.0044155E1,2.5764683E3,5.9539214E3],"tree_param":{"num_deleted":"0","num_feature":"20","num_nodes":"23","size_leaf_vector":"1"}},{"base_weights":[-8.040477E-3,4.493348E-1,-1.8748237E-1,5.9654975E-1,-6.045392E-1,-1.8422925E-1,6.1659616E-1,-7.437281E-2,-1.8694818E-1,6.260169E-1,-1.833757E-1,-1.9771487E-1,6.195209E-1,6.311958E-1,-3.050121E-1,2.5696337E-1,-1.6175361E-1,2.0222664E-1,1.635867E-1,2.515253E-1,-2.7965355E-1],"categories":[],"categories_nodes":[],"categories_segments":[],"categories_sizes":[],"default_left":[0,0,0,1,0,0,0,0,0,0,0,0,0,0,0,0,0,0,0,0,0],"id":8,"left_children":[1,3,-1,5,7,-1,9,11,-1,13,-1,-1,15,17,19,-1,-1,-1,-1,-1,-1],"loss_changes":[5.429473E3,1.7147527E3,0E0,2.3569946E2,1.3329742E1,0E0,1.107207E2,1.9520828E1,0E0,4.5837646E1,0E0,0E0,6.5198717E0,3.432373E1,3.8818798E1,0E0,0E0,0E0,0E0,0E0,0E0],"parents":[2147483647,0,0,1,1,3,3,4,4,6,6,7,7,9,9,12,12,13,13,14,14],"right_children":[2,4,-1,6,8,-1,10,12,-1,14,-1,-1,16,18,20,-1,-1,-1,-1,-1,-1],"split_conditions":[5.0011E1,3.360695E3,-1.8748237E-1,1.8014166E1,3.364738E3,-1.8422925E-1,3.3700938E3,3.36419E3,-1.8694818E-1,3.366192E3,-1.833757E-1,-1.9771487E-1,3.3643142E3,4.1547085E1,3.33853E3,2.5696337E-1,-1.6175361E-1,2.0222664E-1,1.635867E-1,2.515253E-1,-2.7965355E-1],"split_indices":[16,10,0,17,9,0,15,0,0,14,0,0,14,16,5,0,0,0,0,0,0],"split_type":[0,0,0,0,0,0,0,0,0,0,0,0,0,0,0,0,0,0,0,0,0],"sum_hessian":[1.9240871E4,1.1049185E4,8.191685E3,9.69529E3,1.3538947E3,1.5744121E2,9.53785E3,4.6109608E1,1.307785E3,9.465713E3,7.213604E1,2.5051426E1,2.1058184E1,9.413672E3,5.204162E1,1.769854E1,3.3596435E0,6.274157E3,3.1395144E3,1.8314453E1,3.3727165E1],"tree_param":{"num_deleted":"0","num_feature":"20","num_nodes":"21","size_leaf_vector":"1"}},{"base_weights":[-1.5777688E-2,-5.894583E-1,3.2607704E-1,-5.918712E-1,-2.2288078E-1,-1.7550851E-1,4.362708E-1,-1.7707479E-1,-1.9341321E-1,2.5665203E-1,-1.7908758E-1,-5.5061615E-1,4.6559048E-1,-5.9396034E-1,5.62115E-2,3.400413E-1,5.500791E-1,-1.7443576E-1,-2.5806296E-1,-1.5547897E-1,1.5157494E-1,3.9553058E-1,-5.585907E-1,5.711038E-1,4.2348856E-1,6.58888E-2,1.4417376E-1,-2.3768364E-1,1.550601E-1,1.7193386E-1,-3.5719866E-1,-3.5301143E-1,1.5665555E-1],"categories":[],"categories_nodes":[],"categories_segments":[],"categories_sizes":[],"default_left":[1,1,0,1,0,0,1,0,0,0,0,0,0,1,0,0,0,0,0,0,0,0,0,0,1,0,0,0,0,0,0,0,0],"id":9,"left_children":[1,3,5,7,9,-1,11,-1,-1,-1,-1,13,15,17,19,21,23,-1,-1,-1,-1,25,27,29,31,-1,-1,-1,-1,-1,-1,-1,-1],"loss_changes":[3.3251313E3,5.4677734E0,1.066898E3,1.5844727E-1,1.785807E1,0E0,2.7451562E2,0E0,0E0,0E0,0E0,7.2384033E0,9.745984E1,3.515396E-1,5.208329E0,1.849967E2,1.4399048E1,0E0,0E0,0E0,0E0,5.211493E1,5.467502E1,1.736914E1,1.249648E2,0E0,0E0,0E0,0E0,0E0,0E0,0E0,0E0],"parents":[2147483647,0,0,1,1,2,2,3,3,4,4,6,6,11,11,12,12,13,13,14,14,15,15,16,16,21,21,22,22,23,23,24,24],"right_children":[2,4,6,8,10,-1,12,-1,-1,-1,-1,14,16,18,20,22,24,-1,-1,-1,-1,26,28,30,32,-1,-1,-1,-1,-1,-1,-1,-1],"split_conditions":[5.0011E1,4.9979195E1,3.21419E3,3.360695E3,3.31648E3,-1.7550851E-1,1.8123459E1,-1.7707479E-1,-1.9341321E-1,2.5665203E-1,-1.7908758E-1,3.4291133E3,3.33941E3,1.8014166E1,1.777522E1,3.319249E3,3.359991E3,-1.7443576E-1,-2.5806296E-1,-1.5547897E-1,1.5157494E-1,3.28113E3,3.3363896E3,3.42176E3,3.3649192E3,6.58888E-2,1.4417376E-1,-2.3768364E-1,1.550601E-1,1.7193386E-1,-3.5719866E-1,-3.5301143E-1,1.5665555E-1],"split_indices":[16,16,7,10,6,0,17,0,0,0,0,13,8,17,17,15,15,0,0,0,0,8,14,0,14,0,0,0,0,0,0,0,0],"split_type":[0,0,0,0,0,0,0,0,0,0,0,0,0,0,0,0,0,0,0,0,0,0,0,0,0,0,0,0,0,0,0,0,0],"sum_hessian":[1.695299E4,6.329862E3,1.0623129E4,6.2878594E3,4.2002804E1,1.1457246E3,9.477403E3,6.112408E3,1.754508E2,1.0486231E1,3.1516573E1,2.7292975E2,9.204474E3,2.5475449E2,1.8175278E1,3.7045618E3,5.499912E3,2.4636469E2,8.389796E0,7.906271E0,1.0269008E1,3.489641E3,2.1492056E2,4.7135537E3,7.863585E2,1.1385092E3,2.351132E3,1.7677264E2,3.8147926E1,4.708859E3,4.695077E0,4.5048756E1,7.4130975E2],"tree_param":{"num_deleted":"0","num_feature":"20","num_nodes":"33","size_leaf_vector":"1"}},{"base_weights":[2.7607046E-2,-1.3070457E-1,2.1002375E-1,2.099463E-1,-1.748164E-1,5.371555E-1,-1.8930821E-1,1.3564568E-2,7.6163703E-1,-3.6116982E-1,-1.6465501E-1,-3.674202E-1,2.4806206E-1,2.1440287E-1,4.2395255E-1,-3.735087E-1,2.1952336E-1,1.5630455E-1,-1.7331699E-1,4.0111196E-1,-1.3383205E-1,-1.251941E-1,-7.4127905E-2,5.488989E-1,2.495019E-2,-3.9603572E-2,-7.105046E-2],"categories":[],"categories_nodes":[],"categories_segments":[],"categories_sizes":[],"default_left":[0,1,0,0,1,0,0,0,1,0,0,0,0,0,0,0,0,0,0,0,0,0,0,0,0,0,0],"id":10,"left_children":[1,3,-1,-1,5,7,9,11,13,15,17,19,-1,-1,-1,21,-1,23,25,-1,-1,-1,-1,-1,-1,-1,-1],"loss_changes":[1.8812917E3,5.241666E2,0E0,0E0,1.4025262E2,3.1868996E1,5.634781E1,2.5838799E1,4.7979507E0,2.2784882E1,3.240158E1,8.21602E0,0E0,0E0,0E0,9.041519E0,0E0,3.7363277E1,2.971878E1,0E0,0E0,0E0,0E0,0E0,0E0,0E0,0E0],"parents":[2147483647,0,0,1,1,4,4,5,5,6,6,7,7,8,8,9,9,10,10,11,11,15,15,17,17,18,18],"right_children":[2,4,-1,-1,6,8,10,12,14,16,18,20,-1,-1,-1,22,-1,24,26,-1,-1,-1,-1,-1,-1,-1,-1],"split_conditions":[6.88742E3,1.8014166E1,2.1002375E-1,2.099463E-1,3.205415E3,3.18793E3,3.0282442E1,4.9979195E1,3.2037341E3,3.3604006E3,1.8869898E1,3.1731E3,2.4806206E-1,2.1440287E-1,4.2395255E-1,3.29292E3,2.1952336E-1,8.242857E-1,3.33941E3,4.0111196E-1,-1.3383205E-1,-1.251941E-1,-7.4127905E-2,5.488989E-1,2.495019E-2,-3.9603572E-2,-7.105046E-2],"split_indices":[5,17,0,0,15,0,16,16,15,14,17,7,0,0,0,8,0,12,8,0,0,0,0,0,0,0,0],"split_type":[0,0,0,0,0,0,0,0,0,0,0,0,0,0,0,0,0,0,0,0,0,0,0,0,0,0,0],"sum_hessian":[1.7669465E4,1.4303078E4,3.3663872E3,7.2061786E2,1.358246E4,2.702293E2,1.331223E4,8.140859E1,1.8882071E2,1.6683348E3,1.16438955E4,5.5812256E1,2.5596338E1,1.7808202E2,1.0738681E1,1.6503607E3,1.7974154E1,3.0553668E2,1.1338359E4,1.7571882E0,5.405507E1,1.2239443E3,4.2641638E2,1.1789086E1,2.9374762E2,6.8723867E3,4.465972E3],"tree_param":{"num_deleted":"0","num_feature":"20","num_nodes":"27","size_leaf_vector":"1"}},{"base_weights":[-1.300186E-2,3.6941114E-1,-1.779044E-1,4.8328558E-1,-5.7283795E-1,-1.7379442E-1,4.9818084E-1,-1.07965685E-1,-5.917477E-1,5.0516236E-1,-1.7271154E-1,-1.9164573E-1,5.1604426E-1,-1.7483656E-1,-1.9361033E-1,5.2918226E-1,2.9867673E-1,2.2063366E-1,-1.5710333E-1,9.252019E-2,1.6472062E-1,-1.9910303E-1,1.8140364E-1],"categories":[],"categories_nodes":[],"categories_segments":[],"categories_sizes":[],"default_left":[0,0,0,1,0,0,0,0,1,0,0,0,0,0,0,0,0,0,0,0,0,0,0],"id":11,"left_children":[1,3,-1,5,7,-1,9,11,13,15,-1,-1,17,-1,-1,19,21,-1,-1,-1,-1,-1,-1],"loss_changes":[3.759E3,1.0961626E3,0E0,1.445227E2,9.620789E0,0E0,6.767236E1,1.499973E1,1.3235474E-1,4.4131348E1,0E0,0E0,5.155044E0,0E0,0E0,3.494629E1,2.7510233E2,0E0,0E0,0E0,0E0,0E0,0E0],"parents":[2147483647,0,0,1,1,3,3,4,4,6,6,7,7,8,8,9,9,12,12,15,15,16,16],"right_children":[2,4,-1,6,8,-1,10,12,14,16,-1,-1,18,-1,-1,20,22,-1,-1,-1,-1,-1,-1],"split_conditions":[5.0011E1,3.360695E3,-1.779044E-1,1.8014166E1,3.364738E3,-1.7379442E-1,3.3700938E3,3.36419E3,3.36198E3,3.32996E3,-1.7271154E-1,-1.9164573E-1,3.3643142E3,-1.7483656E-1,-1.9361033E-1,3.2206165E3,3.359991E3,2.2063366E-1,-1.5710333E-1,9.252019E-2,1.6472062E-1,-1.9910303E-1,1.8140364E-1],"split_indices":[16,10,0,17,9,0,15,0,5,3,0,0,14,0,0,15,15,0,0,0,0,0,0],"split_type":[0,0,0,0,0,0,0,0,0,0,0,0,0,0,0,0,0,0,0,0,0,0,0],"sum_hessian":[1.6945375E4,1.021247E4,6.732905E3,9.111765E3,1.100705E3,1.2543685E2,8.986328E3,4.328596E1,1.057419E3,8.92881E3,5.7518322E1,2.337598E1,1.990998E1,9.1620276E2,1.4121623E2,7.9969824E3,9.318276E2,1.668234E1,3.2276409E0,6.621582E2,7.334824E3,2.2452968E2,7.0729785E2],"tree_param":{"num_deleted":"0","num_feature":"20","num_nodes":"23","size_leaf_vector":"1"}},{"base_weights":[-2.2281118E-2,-5.676554E-1,2.7005988E-1,-5.7042795E-1,-1.9118048E-1,-5.427075E-1,3.579761E-1,-1.7049627E-1,-1.8957196E-1,2.3677404E-1,-1.7697643E-1,-1.6848025E-1,-1.1430802E-1,-5.2242213E-1,3.8048542E-1,5.367239E-1,-2.204482E-1,-5.693857E-1,6.649053E-2,2.6370597E-1,4.628189E-1,-1.5462399E-1,2.0940384E-1,-1.6721615E-1,-2.2788456E-1,3.8874972E-1,-1.7818362E-1,3.3636078E-1,-3.0518273E-1,4.8429444E-1,3.36566E-1,-1.3041118E-1,1.8705267E-1,5.48697E-2,1.342217E-1,6.680747E-2,-2.6383668E-1,1.4589983E-1,-3.1053248E-1,-3.1946206E-1,1.2860382E-1],"categories":[],"categories_nodes":[],"categories_segments":[],"categories_sizes":[],"default_left":[1,1,0,1,0,0,1,0,0,0,0,0,0,0,0,0,0,1,0,0,0,0,0,0,0,0,0,0,0,0,1,0,0,0,0,0,0,0,0,0,0],"id":12,"left_children":[1,3,5,7,9,11,13,-1,-1,-1,-1,-1,15,17,19,21,-1,23,25,27,29,-1,-1,-1,-1,31,-1,33,35,37,39,-1,-1,-1,-1,-1,-1,-1,-1,-1,-1],"loss_changes":[2.3509436E3,5.262207E0,6.8614636E2,3.0249023E-1,1.5760508E1,7.5232544E0,1.718805E2,0E0,0E0,0E0,0E0,0E0,1.6897678E1,6.0227966E0,8.110315E1,3.8409019E0,0E0,3.427887E-2,3.8229885E0,1.4458203E2,1.3267212E1,0E0,0E0,0E0,0E0,2.5806112E0,0E0,5.27482E1,1.20360306E2,1.3606873E1,9.3835495E1,0E0,0E0,0E0,0E0,0E0,0E0,0E0,0E0,0E0,0E0],"parents":[2147483647,0,0,1,1,2,2,3,3,4,4,5,5,6,6,12,12,13,13,14,14,15,15,17,17,18,18,19,19,20,20,25,25,27,27,28,28,29,29,30,30],"right_children":[2,4,6,8,10,12,14,-1,-1,-1,-1,-1,16,18,20,22,-1,24,26,28,30,-1,-1,-1,-1,32,-1,34,36,38,40,-1,-1,-1,-1,-1,-1,-1,-1,-1,-1],"split_conditions":[5.0011E1,4.9979195E1,3.22278E3,3.360695E3,9.5285714E-1,3.21419E3,1.8123459E1,-1.7049627E-1,-1.8957196E-1,2.3677404E-1,-1.7697643E-1,-1.6848025E-1,3.21852E3,3.4291133E3,3.33941E3,1.415E0,-2.204482E-1,1.8014166E1,1.12E2,3.306414E3,3.359991E3,-1.5462399E-1,2.0940384E-1,-1.6721615E-1,-2.2788456E-1,1.1E2,-1.7818362E-1,3.29567E3,5.502743E1,3.42176E3,3.3649192E3,-1.3041118E-1,1.8705267E-1,5.48697E-2,1.342217E-1,6.680747E-2,-2.6383668E-1,1.4589983E-1,-3.1053248E-1,-3.1946206E-1,1.2860382E-1],"split_indices":[16,16,8,10,12,7,17,0,0,0,0,0,0,13,8,12,0,17,4,15,15,0,0,0,0,4,0,8,16,0,14,0,0,0,0,0,0,0,0,0,0],"split_type":[0,0,0,0,0,0,0,0,0,0,0,0,0,0,0,0,0,0,0,0,0,0,0,0,0,0,0,0,0,0,0,0,0,0,0,0,0,0,0,0,0],"sum_hessian":[1.4743482E4,5.144766E3,9.598716E3,5.106642E3,3.8123783E1,9.3643134E2,8.662285E3,4.947322E3,1.5932039E2,1.0739086E1,2.7384695E1,8.965794E2,3.985194E1,2.1539522E2,8.44689E3,1.9513718E1,2.0338223E1,1.995176E2,1.5877634E1,3.4945393E3,4.95235E3,2.3019288E0,1.7211788E1,1.9137675E2,8.14083E0,1.0947288E1,4.9303465E0,3.0991453E3,3.9539417E2,4.229994E3,7.22356E2,2.2396543E0,8.707633E0,1.3021907E3,1.7969546E3,2.0633879E2,1.8905536E2,4.2250063E3,4.9880548E0,4.389929E1,6.784567E2],"tree_param":{"num_deleted":"0","num_feature":"20","num_nodes":"41","size_leaf_vector":"1"}},{"base_weights":[3.9038997E-2,-8.8070594E-2,1.9075994E-1,1.9059671E-1,-1.2265831E-1,4.723753E-1,-1.3407888E-1,1.0458431E-3,6.8871176E-1,-3.1246507E-1,-1.1178484E-1,-3.2182488E-1,2.1437834E-1,1.9469935E-1,3.2724845E-1,-3.225981E-1,1.9573359E-1,-8.328068E-2,-2.0790344E-1,3.2626778E-1,-1.2055719E-1,-1.1200539E-1,-5.6872785E-2,5.5736918E-2,-2.9126594E-2,-6.442833E-2,5.056276E-1],"categories":[],"categories_nodes":[],"categories_segments":[],"categories_sizes":[],"default_left":[0,1,0,0,1,0,0,0,1,0,0,0,0,0,0,0,0,0,0,0,0,0,0,0,0,0,0],"id":13,"left_children":[1,3,-1,-1,5,7,9,11,13,15,17,19,-1,-1,-1,21,-1,23,25,-1,-1,-1,-1,-1,-1,-1,-1],"loss_changes":[1.1983137E3,3.2591205E2,0E0,0E0,8.452794E1,2.3888367E1,4.846791E1,1.7441177E1,1.8564377E0,1.3452316E1,2.9689209E1,6.316343E0,0E0,0E0,0E0,8.982147E0,0E0,3.1094257E1,3.255268E1,0E0,0E0,0E0,0E0,0E0,0E0,0E0,0E0],"parents":[2147483647,0,0,1,1,4,4,5,5,6,6,7,7,8,8,9,9,10,10,11,11,15,15,17,17,18,18],"right_children":[2,4,-1,-1,6,8,10,12,14,16,18,20,-1,-1,-1,22,-1,24,26,-1,-1,-1,-1,-1,-1,-1,-1],"split_conditions":[6.88742E3,1.8014166E1,1.9075994E-1,1.9059671E-1,3.205415E3,3.18793E3,2.967746E1,4.9979195E1,3.2037341E3,3.3604006E3,3.9530884E1,3.1731E3,2.1437834E-1,1.9469935E-1,3.2724845E-1,3.28489E3,1.9573359E-1,3.22278E3,3.28E2,3.2626778E-1,-1.2055719E-1,-1.1200539E-1,-5.6872785E-2,5.5736918E-2,-2.9126594E-2,-6.442833E-2,5.056276E-1],"split_indices":[5,17,0,0,15,0,16,16,15,14,17,7,0,0,0,7,0,8,4,0,0,0,0,0,0,0,0],"split_type":[0,0,0,0,0,0,0,0,0,0,0,0,0,0,0,0,0,0,0,0,0,0,0,0,0,0,0],"sum_hessian":[1.5794127E4,1.3021682E4,2.7724458E3,5.9340497E2,1.2428276E4,2.3328542E2,1.2194991E4,7.370661E1,1.5957881E2,1.3533239E3,1.0841667E4,5.1123104E1,2.2583508E1,1.4761404E2,1.1964767E1,1.3399183E3,1.3405503E1,8.363362E3,2.4783044E3,2.0705953E0,4.905251E1,9.6856573E2,3.713526E2,4.0762747E2,7.9557354E3,2.4702437E3,8.060658E0],"tree_param":{"num_deleted":"0","num_feature":"20","num_nodes":"27","size_leaf_vector":"1"}},{"base_weights":[-1.9616904E-2,3.0800018E-1,-1.7127682E-1,3.9931825E-1,-5.5206984E-1,-1.6642846E-1,4.1074893E-1,-1.4783235E-1,-5.7106996E-1,4.1610095E-1,-1.6508923E-1,-1.8746784E-1,4.3421698E-1,-1.6776115E-1,-1.8967704E-1,4.4099787E-1,2.307562E-1,1.9521777E-1,-1.5354437E-1,6.477843E-2,1.3867462E-1,-1.6093601E-1,1.533724E-1],"categories":[],"categories_nodes":[],"categories_segments":[],"categories_sizes":[],"default_left":[0,0,0,1,0,0,0,0,1,0,0,0,0,0,0,0,0,0,0,0,0,0,0],"id":14,"left_children":[1,3,-1,5,7,-1,9,11,13,15,-1,-1,17,-1,-1,19,21,-1,-1,-1,-1,-1,-1],"loss_changes":[2.6528037E3,7.237897E2,0E0,9.106311E1,6.710541E0,0E0,4.256555E1,1.1674068E1,2.597046E-1,3.7672607E1,0E0,0E0,4.242594E0,0E0,0E0,3.44115E1,2.0932976E2,0E0,0E0,0E0,0E0,0E0,0E0],"parents":[2147483647,0,0,1,1,3,3,4,4,6,6,7,7,8,8,9,9,12,12,15,15,16,16],"right_children":[2,4,-1,6,8,-1,10,12,14,16,-1,-1,18,-1,-1,20,22,-1,-1,-1,-1,-1,-1],"split_conditions":[5.0011E1,3.360695E3,-1.7127682E-1,1.8014166E1,3.364738E3,-1.6642846E-1,3.3700938E3,3.36419E3,3.36198E3,3.32919E3,-1.6508923E-1,-1.8746784E-1,3.3643142E3,-1.6776115E-1,-1.8967704E-1,3.2206165E3,3.3523596E3,1.9521777E-1,-1.5354437E-1,6.477843E-2,1.3867462E-1,-1.6093601E-1,1.533724E-1],"split_indices":[16,10,0,17,9,0,15,0,5,1,0,0,14,0,0,15,15,0,0,0,0,0,0],"split_type":[0,0,0,0,0,0,0,0,0,0,0,0,0,0,0,0,0,0,0,0,0,0,0],"sum_hessian":[1.4685463E4,9.211758E3,5.473705E3,8.328061E3,8.836973E2,9.80334E1,8.230026E3,4.0065357E1,8.4363196E2,8.1850117E3,4.5014862E1,2.1978054E1,1.8087303E1,7.1509155E2,1.2854044E2,7.2145234E3,9.7048865E2,1.4972782E1,3.1145213E0,6.233825E2,6.5911406E3,2.595715E2,7.109172E2],"tree_param":{"num_deleted":"0","num_feature":"20","num_nodes":"23","size_leaf_vector":"1"}},{"base_weights":[-2.8548252E-2,-5.521346E-1,2.2446215E-1,-5.553362E-1,-1.8148646E-1,-1.6348374E-1,2.9159617E-1,-1.6587476E-1,-1.8552049E-1,2.1817514E-1,-1.7374732E-1,-5.0396115E-1,3.090284E-1,-1.6601217E-1,6.337637E-2,1.905342E-1,3.9399606E-1,3.586863E-1,-1.736804E-1,2.583849E-1,-4.3643188E-1,4.151285E-1,2.6994473E-1,-1.21436E-1,1.6876599E-1,1.3350254E-1,4.405213E-2,7.4702114E-2,-2.5152332E-1,-3.8028693E-1,1.2501433E-1,-1.7819673E-1,1.2298974E-1],"categories":[],"categories_nodes":[],"categories_segments":[],"categories_sizes":[],"default_left":[1,1,0,1,0,0,1,0,0,0,0,0,0,0,0,0,0,0,0,0,0,0,0,0,0,0,0,0,0,0,0,0,0],"id":15,"left_children":[1,3,5,7,9,-1,11,-1,-1,-1,-1,13,15,-1,17,19,21,23,-1,25,27,29,31,-1,-1,-1,-1,-1,-1,-1,-1,-1,-1],"loss_changes":[1.6955957E3,4.8479004E0,4.459092E2,2.8894043E-1,1.3863393E1,0E0,1.10239075E2,0E0,0E0,0E0,0E0,4.8171234E0,7.813605E1,0E0,2.9701514E0,1.3819781E2,1.1745422E1,1.8766943E0,0E0,6.0920593E1,8.764949E1,1.0837402E1,8.023236E1,0E0,0E0,0E0,0E0,0E0,0E0,0E0,0E0,0E0,0E0],"parents":[2147483647,0,0,1,1,2,2,3,3,4,4,6,6,11,11,12,12,14,14,15,15,16,16,17,17,19,19,20,20,21,21,22,22],"right_children":[2,4,6,8,10,-1,12,-1,-1,-1,-1,14,16,-1,18,20,22,24,-1,26,28,30,32,-1,-1,-1,-1,-1,-1,-1,-1,-1,-1],"split_conditions":[5.0011E1,4.9979195E1,3.21419E3,3.360695E3,9.5285714E-1,-1.6348374E-1,1.8123459E1,-1.6587476E-1,-1.8552049E-1,2.1817514E-1,-1.7374732E-1,3.4291133E3,3.33686E3,-1.6601217E-1,1.12E2,3.306414E3,3.359991E3,1.1E2,-1.736804E-1,3.2509888E3,5.2093582E1,3.33539E3,3.38008E3,-1.21436E-1,1.6876599E-1,1.3350254E-1,4.405213E-2,7.4702114E-2,-2.5152332E-1,-3.8028693E-1,1.2501433E-1,-1.7819673E-1,1.2298974E-1],"split_indices":[16,16,7,10,12,0,17,0,0,0,0,13,8,0,4,15,15,4,0,15,16,3,7,0,0,0,0,0,0,0,0,0,0],"split_type":[0,0,0,0,0,0,0,0,0,0,0,0,0,0,0,0,0,0,0,0,0,0,0,0,0,0,0,0,0,0,0,0,0],"sum_hessian":[1.2797643E4,4.169008E3,8.628635E3,4.1328105E3,3.6197006E1,6.918925E2,7.9367427E3,3.9894712E3,1.433394E2,1.0766107E1,2.5430899E1,1.6958217E2,7.76716E3,1.5601825E2,1.3563917E1,3.2449968E3,4.5221636E3,9.594365E0,3.9695518E0,2.9286448E3,3.1635217E2,3.861929E3,6.6023456E2,1.81431E0,7.780055E0,1.094486E3,1.8341587E3,1.1708463E2,1.9926755E2,2.884656E0,3.8590442E3,9.16304E1,5.686042E2],"tree_param":{"num_deleted":"0","num_feature":"20","num_nodes":"33","size_leaf_vector":"1"}},{"base_weights":[4.9763527E-2,-5.1121034E-2,1.7839806E-1,1.7815849E-1,-7.775778E-2,4.2486328E-1,-8.659905E-2,-9.389677E-3,6.4529276E-1,-2.566608E-1,-6.584715E-2,-2.904523E-1,1.9160287E-1,1.7691663E-1,2.5390762E-1,-3.21452E-1,-8.8880986E-2,-3.5118645E-1,-5.704946E-2,2.7610418E-1,-1.1124531E-1,-9.813136E-2,1.282725E-1,5.0527537E-1,-8.287022E-2,-1.1054535E-1,2.4700956E-1,2.6874617E-1,-2.247753E-2],"categories":[],"categories_nodes":[],"categories_segments":[],"categories_sizes":[],"default_left":[0,1,0,0,1,0,0,0,1,0,0,0,0,0,0,0,0,0,0,0,0,0,0,0,0,0,0,0,0],"id":16,"left_children":[1,3,-1,-1,5,7,9,11,13,15,17,19,-1,-1,-1,21,23,25,27,-1,-1,-1,-1,-1,-1,-1,-1,-1,-1],"loss_changes":[7.782609E2,2.0528561E2,0E0,0E0,5.1022125E1,1.9006943E1,3.977672E1,1.2538744E1,9.721985E-1,1.3298386E1,2.5210964E1,5.011192E0,0E0,0E0,0E0,3.8827667E0,1.14383064E2,6.40736E0,1.6616512E2,0E0,0E0,0E0,0E0,0E0,0E0,0E0,0E0,0E0,0E0],"parents":[2147483647,0,0,1,1,4,4,5,5,6,6,7,7,8,8,9,9,10,10,11,11,15,15,16,16,17,17,18,18],"right_children":[2,4,-1,-1,6,8,10,12,14,16,18,20,-1,-1,-1,22,24,26,28,-1,-1,-1,-1,-1,-1,-1,-1,-1,-1],"split_conditions":[6.88742E3,1.8014166E1,1.7839806E-1,1.7815849E-1,3.205415E3,3.1887417E3,2.9989544E1,4.9979195E1,3.2022102E3,3.29292E3,3.1826E3,3.1731E3,1.9160287E-1,1.7691663E-1,2.5390762E-1,3.6E2,3.3281777E3,4.8625214E1,3.22278E3,2.7610418E-1,-1.1124531E-1,-9.813136E-2,1.282725E-1,5.0527537E-1,-8.287022E-2,-1.1054535E-1,2.4700956E-1,2.6874617E-1,-2.247753E-2],"split_indices":[5,17,0,0,15,13,16,16,15,8,3,7,0,0,0,4,15,16,8,0,0,0,0,0,0,0,0,0,0],"split_type":[0,0,0,0,0,0,0,0,0,0,0,0,0,0,0,0,0,0,0,0,0,0,0,0,0,0,0,0,0],"sum_hessian":[1.415594E4,1.194525E4,2.21069E3,4.729098E2,1.1472341E4,1.9750043E2,1.127484E4,6.6820114E1,1.3068031E2,1.2249567E3,1.0049883E4,4.6991833E1,1.9828283E1,1.0546487E2,2.5215452E1,8.830391E2,3.4191757E2,2.9942978E2,9.750453E3,2.2743301E0,4.4717503E1,8.769843E2,6.0548368E0,3.1911694E1,3.100059E2,2.9576028E2,3.6694934E0,1.7864368E2,9.57181E3],"tree_param":{"num_deleted":"0","num_feature":"20","num_nodes":"29","size_leaf_vector":"1"}},{"base_weights":[-2.674526E-2,2.576071E-1,-1.6667262E-1,3.3169234E-1,-5.370461E-1,-1.6103299E-1,3.4056488E-1,-1.7360066E-1,-5.5661505E-1,3.464414E-1,-5.3948396E-1,-1.8426235E-1,3.785983E-1,-1.6275123E-1,-1.8553203E-1,1.09667E-1,3.6793014E-1,4.4856215E-1,-1.0461253E0,1.788812E-1,-1.4899085E-1,1.5067057E-1,-3.7906733E-1,1.3730617E-1,8.982119E-2,1.7529243E-1,-1.2689246E-1,-1.7740458E-1,-3.4768057E-1],"categories":[],"categories_nodes":[],"categories_segments":[],"categories_sizes":[],"default_left":[0,0,0,1,0,0,0,0,1,1,0,0,0,0,0,0,0,0,0,0,0,0,0,0,0,0,0,0,0],"id":17,"left_children":[1,3,-1,5,7,-1,9,11,13,15,17,-1,19,-1,-1,21,23,25,27,-1,-1,-1,-1,-1,-1,-1,-1,-1,-1],"loss_changes":[1.9068358E3,4.856692E2,0E0,5.831256E1,4.907837E0,0E0,3.880963E1,9.332945E0,2.4659729E-1,3.7708923E1,2.5463017E1,0E0,3.5764763E0,0E0,0E0,3.3419107E2,4.1697266E1,2.3321939E0,1.0233307E0,0E0,0E0,0E0,0E0,0E0,0E0,0E0,0E0,0E0,0E0],"parents":[2147483647,0,0,1,1,3,3,4,4,6,6,7,7,8,8,9,9,10,10,12,12,15,15,16,16,17,17,18,18],"right_children":[2,4,-1,6,8,-1,10,12,14,16,18,-1,20,-1,-1,22,24,26,28,-1,-1,-1,-1,-1,-1,-1,-1,-1,-1],"split_conditions":[5.0011E1,3.36146E3,-1.6667262E-1,1.8014166E1,3.364738E3,-1.6103299E-1,3.366192E3,3.36419E3,3.36198E3,3.2206165E3,3.33853E3,-1.8426235E-1,3.3643142E3,-1.6275123E-1,-1.8553203E-1,3.2104832E3,3.28567E3,3.369306E3,3.6470444E1,1.788812E-1,-1.4899085E-1,1.5067057E-1,-3.7906733E-1,1.3730617E-1,8.982119E-2,1.7529243E-1,-1.2689246E-1,-1.7740458E-1,-3.4768057E-1],"split_indices":[16,6,0,17,9,0,14,0,5,15,5,0,14,0,0,14,6,14,17,0,0,0,0,0,0,0,0,0,0],"split_type":[0,0,0,0,0,0,0,0,0,0,0,0,0,0,0,0,0,0,0,0,0,0,0,0,0,0,0,0,0],"sum_hessian":[1.2678662E4,8.245541E3,4.433121E3,7.542902E3,7.026397E2,7.567952E1,7.467222E3,3.640362E1,6.662361E2,7.418293E3,4.892911E1,2.0185244E1,1.6218378E1,5.5038983E2,1.15846245E2,6.177463E2,6.800547E3,1.6623936E1,3.2305176E1,1.3243443E1,2.974936E0,4.809032E2,1.368431E2,2.941729E3,3.8588176E3,1.4668773E1,1.955164E0,7.6613913E0,2.4643785E1],"tree_param":{"num_deleted":"0","num_feature":"20","num_nodes":"29","size_leaf_vector":"1"}},{"base_weights":[-3.3684567E-2,-5.4410386E-1,1.8457507E-1,-1.6243294E-1,-1.8175367E-1,-1.5975362E-1,2.366249E-1,1.2044396E-1,3.3122465E-1,1.9212055E-1,-3.464739E-1,-1.5503594E-1,3.3860278E-1,2.5497125E-2,3.2300892E-1,-7.9216987E-1,3.403021E-2,3.921411E-1,2.8607035E-1,1.0881672E-1,-2.425845E-1,1.0131691E-1,-4.4594565E-1,-2.8574857E-1,-2.0228249E-1,1.7093869E-1,-1.20971575E-1,1.4317325E-1,1.0531854E-1,-6.178879E-1,8.873092E-2],"categories":[],"categories_nodes":[],"categories_segments":[],"categories_sizes":[],"default_left":[1,1,0,0,0,0,0,0,0,0,1,0,0,0,0,0,0,0,0,0,0,0,0,0,0,0,0,0,0,0,0],"id":18,"left_children":[1,3,5,-1,-1,-1,7,9,11,13,15,-1,17,19,21,23,25,27,29,-1,-1,-1,-1,-1,-1,-1,-1,-1,-1,-1,-1],"loss_changes":[1.2451599E3,2.218628E-1,2.923481E2,0E0,0E0,0E0,8.0193665E1,1.097691E2,2.5347168E1,6.1980522E1,7.406711E1,0E0,1.1107239E1,3.5233487E2,4.288336E1,3.159027E0,5.5629826E1,6.7297974E0,4.6503464E1,0E0,0E0,0E0,0E0,0E0,0E0,0E0,0E0,0E0,0E0,0E0,0E0],"parents":[2147483647,0,0,1,1,2,2,6,6,7,7,8,8,9,9,10,10,12,12,13,13,14,14,15,15,16,16,17,17,18,18],"right_children":[2,4,6,-1,-1,-1,8,10,12,14,16,-1,18,20,22,24,26,28,30,-1,-1,-1,-1,-1,-1,-1,-1,-1,-1,-1,-1],"split_conditions":[4.9979195E1,3.360695E3,3.21419E3,-1.6243294E-1,-1.8175367E-1,-1.5975362E-1,3.33941E3,3.306414E3,1.8014166E1,3.29588E3,3.3212275E3,-1.5503594E-1,3.3326174E3,3.2478672E3,3.3368972E3,3.3174292E3,3.319249E3,3.34835E3,3.34257E3,1.0881672E-1,-2.425845E-1,1.0131691E-1,-4.4594565E-1,-2.8574857E-1,-2.0228249E-1,1.7093869E-1,-1.20971575E-1,1.4317325E-1,1.0531854E-1,-6.178879E-1,8.873092E-2],"split_indices":[16,10,7,0,0,0,8,15,17,8,14,0,15,15,9,15,15,0,8,0,0,0,0,0,0,0,0,0,0,0,0],"split_type":[0,0,0,0,0,0,0,0,0,0,0,0,0,0,0,0,0,0,0,0,0,0,0,0,0,0,0,0,0,0,0],"sum_hessian":[1.1175081E4,3.3468008E3,7.8282803E3,3.2178955E3,1.2890535E2,5.291387E2,7.2991416E3,3.276923E3,4.0222185E3,2.8413376E3,4.355854E2,3.409792E1,3.9881206E3,1.2505535E3,1.5907842E3,2.0010936E2,2.3547603E2,1.9719484E3,2.0161721E3,8.9092456E2,3.5962897E2,1.5787598E3,1.2024492E1,8.179592E1,1.18313446E2,1.0568363E2,1.2979239E2,6.385213E2,1.3334271E3,7.4321637E0,2.0087399E3],"tree_param":{"num_deleted":"0","num_feature":"20","num_nodes":"31","size_leaf_vector":"1"}},{"base_weights":[5.8261167E-2,-2.0906925E-2,1.7011118E-1,1.6978064E-1,-4.1123133E-2,4.0344378E-1,-4.790456E-2,9.704739E-3,6.193682E-1,-2.0708999E-1,-3.048882E-2,-2.272561E-1,1.760851E-1,1.6759437E-1,2.3697081E-1,-2.703069E-1,-6.4975545E-2,-6.0308117E-2,6.4748816E-2,2.5245255E-1,-9.362384E-2,-8.301227E-2,1.2014377E-1,4.0122366E-1,-7.2308555E-2,-3.1816945E-3,-4.1699667E-2,1.0966528E-1,5.4758126E-3],"categories":[],"categories_nodes":[],"categories_segments":[],"categories_sizes":[],"default_left":[0,1,0,0,1,0,0,0,1,0,0,0,0,0,0,0,0,0,0,0,0,0,0,0,0,0,0,0,0],"id":19,"left_children":[1,3,-1,-1,5,7,9,11,13,15,17,19,-1,-1,-1,21,23,25,27,-1,-1,-1,-1,-1,-1,-1,-1,-1,-1],"loss_changes":[5.1625616E2,1.316148E2,0E0,0E0,3.234841E1,1.3700932E1,2.9278515E1,8.082856E0,6.3674927E-1,9.339619E0,2.7047642E1,4.063262E0,0E0,0E0,0E0,3.204506E0,7.9817825E1,2.8364273E1,3.1757687E1,0E0,0E0,0E0,0E0,0E0,0E0,0E0,0E0,0E0,0E0],"parents":[2147483647,0,0,1,1,4,4,5,5,6,6,7,7,8,8,9,9,10,10,11,11,15,15,16,16,17,17,18,18],"right_children":[2,4,-1,-1,6,8,10,12,14,16,18,20,-1,-1,-1,22,24,26,28,-1,-1,-1,-1,-1,-1,-1,-1,-1,-1],"split_conditions":[6.88742E3,1.8014166E1,1.7011118E-1,1.6978064E-1,3.205415E3,3.1887417E3,2.967746E1,4.9979195E1,3.2022102E3,3.28489E3,1.97E2,3.1731E3,1.760851E-1,1.6759437E-1,2.3697081E-1,3.6E2,3.3196978E3,3.2743607E1,1.4392858E0,2.5245255E-1,-9.362384E-2,-8.301227E-2,1.2014377E-1,4.0122366E-1,-7.2308555E-2,-3.1816945E-3,-4.1699667E-2,1.0966528E-1,5.4758126E-3],"split_indices":[5,17,0,0,15,13,16,16,15,7,4,7,0,0,0,4,15,17,12,0,0,0,0,0,0,0,0,0,0],"split_type":[0,0,0,0,0,0,0,0,0,0,0,0,0,0,0,0,0,0,0,0,0,0,0,0,0,0,0,0,0],"sum_hessian":[1.2815766E4,1.1090922E4,1.724844E3,3.6844992E2,1.0722472E4,1.6022426E2,1.0562248E4,5.711669E1,1.03107574E2,1.0405347E3,9.521713E3,4.0923706E1,1.6192982E1,7.9187874E1,2.39197E1,7.1955316E2,3.2098154E2,7.25158E3,2.2701328E3,2.353181E0,3.8570526E1,7.13334E2,6.219186E0,3.5065235E1,2.859163E2,4.445107E3,2.806473E3,3.0300552E2,1.9671273E3],"tree_param":{"num_deleted":"0","num_feature":"20","num_nodes":"29","size_leaf_vector":"1"}},{"base_weights":[-3.3655502E-2,2.1403974E-1,-1.633446E-1,2.7428758E-1,-5.2595377E-1,-1.5689935E-1,2.8113633E-1,-1.9733523E-1,-5.4656136E-1,3.060067E-1,9.131061E-2,-1.7977303E-1,3.3408558E-1,-1.5913627E-1,-1.8170321E-1,6.889441E-2,3.3032545E-1,-6.4955896E-1,3.8282087E-1,1.5873581E-1,-1.3602749E-1,1.2719274E-1,-3.107355E-1,1.2731636E-1,8.5184544E-2,-2.4198358E-1,3.1940898E-1,1.3637309E-1,-1.4777143E-1],"categories":[],"categories_nodes":[],"categories_segments":[],"categories_sizes":[],"default_left":[0,0,0,1,0,0,0,0,1,1,1,0,0,0,0,0,0,0,0,0,0,0,0,0,0,0,0,0,0],"id":20,"left_children":[1,3,-1,5,7,-1,9,11,13,15,17,-1,19,-1,-1,21,23,25,27,-1,-1,-1,-1,-1,-1,-1,-1,-1,-1],"loss_changes":[1.3921179E3,3.304875E2,0E0,3.756421E1,3.6722412E0,0E0,3.205011E1,7.5695477E0,1.7831421E-1,3.4616455E1,1.7054715E2,0E0,2.6205626E0,0E0,0E0,2.2012447E2,2.3645996E1,6.090336E1,3.5808464E1,0E0,0E0,0E0,0E0,0E0,0E0,0E0,0E0,0E0,0E0],"parents":[2147483647,0,0,1,1,3,3,4,4,6,6,7,7,8,8,9,9,10,10,12,12,15,15,16,16,17,17,18,18],"right_children":[2,4,-1,6,8,-1,10,12,14,16,18,-1,20,-1,-1,22,24,26,28,-1,-1,-1,-1,-1,-1,-1,-1,-1,-1],"split_conditions":[5.0011E1,3.360695E3,-1.633446E-1,1.8014166E1,3.364738E3,-1.5689935E-1,3.32996E3,3.3647769E3,3.36198E3,3.2206165E3,3.359991E3,-1.7977303E-1,3.3643142E3,-1.5913627E-1,-1.8170321E-1,3.2104832E3,3.24723E3,4.9979195E1,3.366192E3,1.5873581E-1,-1.3602749E-1,1.2719274E-1,-3.107355E-1,1.2731636E-1,8.5184544E-2,-2.4198358E-1,3.1940898E-1,1.3637309E-1,-1.4777143E-1],"split_indices":[16,10,0,17,9,0,3,13,5,15,15,0,14,0,0,14,3,16,14,0,0,0,0,0,0,0,0,0,0],"split_type":[0,0,0,0,0,0,0,0,0,0,0,0,0,0,0,0,0,0,0,0,0,0,0,0,0,0,0,0,0],"sum_hessian":[1.1000416E4,7.408622E3,3.5917944E3,6.8514307E3,5.571915E2,5.7711327E1,6.793719E3,3.3503544E1,5.23688E2,6.006195E3,7.8752454E2,1.900365E1,1.4499894E1,4.193908E2,1.04297165E2,5.590631E2,5.4471313E3,2.220243E2,5.6550024E2,1.18846655E1,2.6152284E0,4.235394E2,1.3552371E2,1.7961028E3,3.6510288E3,2.0387555E2,1.8148752E1,5.231022E2,4.2398064E1],"tree_param":{"num_deleted":"0","num_feature":"20","num_nodes":"29","size_leaf_vector":"1"}},{"base_weights":[-3.7983846E-2,-5.36332E-1,1.5233539E-1,-1.5927689E-1,-1.7005906E-1,-1.5714324E-1,1.9287688E-1,3.6851235E-2,2.5611115E-1,3.2297283E-1,-2.3737179E-1,-4.5414072E-1,2.6642615E-1,3.6337158E-1,-5.223947E-1,-1.0998724E0,-1.4379364E-2,-1.6326499E-1,6.40992E-2,-4.477956E-1,2.683536E-1,-2.0387699E-1,1.1491007E-1,3.86698E-2,-4.317151E-1,-4.1826624E-1,-2.9641655E-1,1.03426E-1,-1.225476E-1,9.996093E-2,-1.7625034E-1,9.7671196E-2,6.251455E-2],"categories":[],"categories_nodes":[],"categories_segments":[],"categories_sizes":[],"default_left":[1,1,0,0,0,0,0,0,1,0,0,0,0,0,0,0,0,0,0,0,0,0,0,0,0,0,0,0,0,0,0,0,0],"id":21,"left_children":[1,3,5,-1,-1,-1,7,9,11,13,15,17,19,21,23,25,27,-1,29,-1,31,-1,-1,-1,-1,-1,-1,-1,-1,-1,-1,-1,-1],"loss_changes":[9.3229E2,1.4764404E-1,1.9508928E2,0E0,0E0,0E0,6.620834E1,1.52039E2,3.5109863E1,3.257438E1,1.9030199E2,3.2435522E0,1.6363525E1,1.883104E1,2.625042E1,5.3125763E0,1.1156948E2,0E0,2.1373322E0,0E0,1.6072754E1,0E0,0E0,0E0,0E0,0E0,0E0,0E0,0E0,0E0,0E0,0E0,0E0],"parents":[2147483647,0,0,1,1,2,2,6,6,7,7,8,8,9,9,10,10,11,11,12,12,13,13,14,14,15,15,16,16,18,18,20,20],"right_children":[2,4,6,-1,-1,-1,8,10,12,14,16,18,20,22,24,26,28,-1,30,-1,32,-1,-1,-1,-1,-1,-1,-1,-1,-1,-1,-1,-1],"split_conditions":[4.9979195E1,3.3300625E3,3.21419E3,-1.5927689E-1,-1.7005906E-1,-1.5714324E-1,3.31466E3,3.2509888E3,1.8123459E1,7.430308E1,3.2521602E3,3.4291133E3,3.31275E3,3.2075093E3,4.467056E1,3.2530889E3,3.2708452E3,-1.6326499E-1,1.12E2,-4.477956E-1,3.3276375E3,-2.0387699E-1,1.1491007E-1,3.86698E-2,-4.317151E-1,-4.1826624E-1,-2.9641655E-1,1.03426E-1,-1.225476E-1,9.996093E-2,-1.7625034E-1,9.7671196E-2,6.251455E-2],"split_indices":[16,11,7,0,0,0,8,15,17,16,14,13,3,14,17,15,15,0,4,0,15,0,0,0,0,0,0,0,0,0,0,0,0],"split_type":[0,0,0,0,0,0,0,0,0,0,0,0,0,0,0,0,0,0,0,0,0,0,0,0,0,0,0,0,0,0,0,0,0],"sum_hessian":[9.8277295E3,2.7154763E3,7.112253E3,2.3224163E3,3.9305994E2,4.016506E2,6.7106025E3,1.9357852E3,4.7748174E3,9.47253E2,9.8853217E2,6.7736176E1,4.707081E3,9.0459406E2,4.2658943E1,2.0226598E2,7.8626624E2,5.766349E1,1.0072685E1,4.305492E0,4.702776E3,1.6116886E1,8.884772E2,2.5441708E1,1.7217236E1,5.2526432E1,1.4973953E2,4.1145532E2,3.7481088E2,7.474455E0,2.59823E0,2.404395E3,2.2983806E3],"tree_param":{"num_deleted":"0","num_feature":"20","num_nodes":"33","size_leaf_vector":"1"}},{"base_weights":[6.454246E-2,2.7964546E-3,1.6438645E-1,3.880884E-1,-1.919247E-2,4.3474633E-1,-3.7455294E-1,3.8563243E-1,-2.4534602E-2,-5.8063045E-2,5.1114863E-1,-4.8381558E-1,3.6624917E-1,2.0812813E-2,6.061283E-1,-1.3719556E-1,-4.799714E-3,-1.9029795E-1,1.9734807E-1,4.006746E-1,6.352729E-1,1.5094459E-1,-5.390793E-1,-3.6282924E-1,3.1801757E-1,1.6162688E-1,2.2338888E-1,4.7512647E-2,-2.433104E-1,1.3774639E0,-1.7906375E-2,1.4772624E-1,-9.382301E-2,1.5764952E-1,2.7466051E-2,1.4718719E-1,3.0659002E-1,-1.7552911E-1,-8.606739E-2,-1.2783358E-1,9.910421E-2,-3.0392056E-2,2.4455343E-1,-3.219668E-2,2.0057252E-1,-8.064503E-2,4.2471966E-1,-4.8687095E-3,5.115464E-1,-7.440922E-2,-6.243888E-4],"categories":[],"categories_nodes":[],"categories_segments":[],"categories_sizes":[],"default_left":[0,1,0,1,1,0,0,0,0,0,0,0,0,0,1,0,0,0,0,0,1,0,0,0,0,0,0,0,0,0,0,0,0,0,0,0,0,0,0,0,0,0,0,0,0,0,0,0,0,0,0],"id":22,"left_children":[1,3,-1,5,7,9,11,13,15,17,19,21,-1,23,25,27,29,31,-1,33,35,-1,37,39,41,-1,-1,43,45,47,49,-1,-1,-1,-1,-1,-1,-1,-1,-1,-1,-1,-1,-1,-1,-1,-1,-1,-1,-1,-1],"loss_changes":[3.4963525E2,8.801533E1,0E0,2.0120964E1,2.1263788E1,1.9947922E1,6.321025E0,1.0288895E1,2.1567959E1,6.9320693E0,6.02726E0,1.9884005E0,0E0,5.7341194E0,3.4330368E-1,2.8353264E1,1.4959682E2,5.2925634E0,0E0,9.40881E0,1.1469673E1,0E0,1.8372822E-1,1.104862E0,5.9823666E0,0E0,0E0,5.088807E1,3.9249645E1,3.544969E1,2.978671E1,0E0,0E0,0E0,0E0,0E0,0E0,0E0,0E0,0E0,0E0,0E0,0E0,0E0,0E0,0E0,0E0,0E0,0E0,0E0,0E0],"parents":[2147483647,0,0,1,1,3,3,4,4,5,5,6,6,7,7,8,8,9,9,10,10,11,11,13,13,14,14,15,15,16,16,17,17,19,19,20,20,22,22,23,23,24,24,27,27,28,28,29,29,30,30],"right_children":[2,4,-1,6,8,10,12,14,16,18,20,22,-1,24,26,28,30,32,-1,34,36,-1,38,40,42,-1,-1,44,46,48,50,-1,-1,-1,-1,-1,-1,-1,-1,-1,-1,-1,-1,-1,-1,-1,-1,-1,-1,-1,-1],"split_conditions":[6.88742E3,1.8869898E1,1.6438645E-1,6.7826904E1,3.205415E3,3.9309654E1,1.66E2,3.1887417E3,3.23379E3,3.3093E3,1.26E2,1E2,3.6624917E-1,1.1778572E0,3.2022102E3,3.229431E3,3.23778E3,1.777522E1,1.9734807E-1,1.11E2,1.8123459E1,1.5094459E-1,3.31747E3,4.9979195E1,4.7253357E1,1.6162688E-1,2.2338888E-1,3.2198066E3,4.889639E1,3.23295E3,3.2509888E3,1.4772624E-1,-9.382301E-2,1.5764952E-1,2.7466051E-2,1.4718719E-1,3.0659002E-1,-1.7552911E-1,-8.606739E-2,-1.2783358E-1,9.910421E-2,-3.0392056E-2,2.4455343E-1,-3.219668E-2,2.0057252E-1,-8.064503E-2,4.2471966E-1,-4.8687095E-3,5.115464E-1,-7.440922E-2,-6.243888E-4],"split_indices":[5,17,0,16,15,16,4,13,3,3,4,4,0,12,15,15,8,17,0,4,17,0,1,16,16,0,0,14,16,0,15,0,0,0,0,0,0,0,0,0,0,0,0,0,0,0,0,0,0,0,0],"split_type":[0,0,0,0,0,0,0,0,0,0,0,0,0,0,0,0,0,0,0,0,0,0,0,0,0,0,0,0,0,0,0,0,0,0,0,0,0,0,0,0,0,0,0,0,0,0,0,0,0,0,0],"sum_hessian":[1.1712604E4,1.0386896E4,1.325707E3,5.598853E2,9.827012E3,5.2801184E2,3.1873482E1,1.2706261E2,9.699949E3,7.09045E1,4.5710733E2,3.0482569E1,1.3909125E0,4.8278385E1,7.878422E1,1.4449845E3,8.254964E3,6.046918E1,1.0435326E1,2.4408919E2,2.1301814E2,1.1865876E0,2.9295982E1,2.09782E1,2.7300184E1,5.6291756E1,2.2492462E1,5.274441E2,9.1754034E2,7.656079E1,8.1784033E3,8.736351E0,5.173283E1,1.7337859E2,7.071062E1,1.5667873E2,5.6339424E1,2.3658789E1,5.637193E0,1.9576286E1,1.4019157E0,1.5241305E1,1.2058878E1,4.2285162E2,1.0459247E2,9.0447284E2,1.3067525E1,1.4755406E1,6.180539E1,5.252774E2,7.653126E3],"tree_param":{"num_deleted":"0","num_feature":"20","num_nodes":"51","size_leaf_vector":"1"}},{"base_weights":[-3.992876E-2,1.7778951E-1,-1.6101144E-1,2.2703396E-1,-5.1583517E-1,2.653677E-1,1.1561313E-1,-1.9769162E-1,-5.390898E-1,2.0780986E-2,2.9581043E-1,-8.387261E-1,2.2111173E-1,-1.7363146E-1,3.1308484E-1,-1.5647751E-1,-1.7775476E-1,3.6255303E-1,-9.0912163E-1,2.3882927E-1,3.5695824E-1,-1.6941176E-1,-1.3475337E0,-6.457225E-1,2.3703113E-1,1.5966134E-1,-1.382446E-1,1.1158135E-1,-4.3681836E-1,-2.8533226E-1,-1.4435063E-1,9.36806E-2,-5.952328E-1,1.089835E-1,-1.905183E-1,-3.7133333E-1,1.01959445E-1,-5.4899573E-1,-2.2116409E-1,7.84667E-2,-1.3828304E-1],"categories":[],"categories_nodes":[],"categories_segments":[],"categories_sizes":[],"default_left":[0,0,0,0,0,1,1,0,1,0,0,1,0,0,0,0,0,0,0,0,0,1,0,0,0,0,0,0,0,0,0,0,0,0,0,0,0,0,0,0,0],"id":23,"left_children":[1,3,-1,5,7,9,11,13,15,17,19,21,23,-1,25,-1,-1,27,29,31,33,35,37,-1,39,-1,-1,-1,-1,-1,-1,-1,-1,-1,-1,-1,-1,-1,-1,-1,-1],"loss_changes":[1.0367123E3,2.2776065E2,0E0,2.6550964E1,3.1642075E0,3.446573E1,1.6075665E2,6.350134E0,7.5553894E-2,1.6353609E2,1.4259949E1,5.390689E1,5.4802803E1,0E0,2.6517086E0,0E0,0E0,6.962742E0,2.0273056E0,3.4902917E2,1.2669281E1,3.839665E1,2.5200333E1,0E0,2.4567894E1,0E0,0E0,0E0,0E0,0E0,0E0,0E0,0E0,0E0,0E0,0E0,0E0,0E0,0E0,0E0,0E0],"parents":[2147483647,0,0,1,1,3,3,4,4,5,5,6,6,7,7,8,8,9,9,10,10,11,11,12,12,14,14,17,17,18,18,19,19,20,20,21,21,22,22,24,24],"right_children":[2,4,-1,6,8,10,12,14,16,18,20,22,24,-1,26,-1,-1,28,30,32,34,36,38,-1,40,-1,-1,-1,-1,-1,-1,-1,-1,-1,-1,-1,-1,-1,-1,-1,-1],"split_conditions":[5.0011E1,3.360695E3,-1.6101144E-1,3.31153E3,3.364738E3,3.2206165E3,3.3287188E3,3.36419E3,3.36198E3,3.2104832E3,3.3103442E3,3.3166006E3,3.31205E3,-1.7363146E-1,3.3643142E3,-1.5647751E-1,-1.7775476E-1,3.2201787E3,3.24395E3,3.3028086E3,4.903764E1,3.315017E3,3.32996E3,-6.457225E-1,3.366192E3,1.5966134E-1,-1.382446E-1,1.1158135E-1,-4.3681836E-1,-2.8533226E-1,-1.4435063E-1,9.36806E-2,-5.952328E-1,1.089835E-1,-1.905183E-1,-3.7133333E-1,1.01959445E-1,-5.4899573E-1,-2.2116409E-1,7.84667E-2,-1.3828304E-1],"split_indices":[16,10,0,3,9,15,15,0,5,14,15,14,7,0,14,0,0,15,0,14,16,15,3,0,14,0,0,0,0,0,0,0,0,0,0,0,0,0,0,0,0],"split_type":[0,0,0,0,0,0,0,0,0,0,0,0,0,0,0,0,0,0,0,0,0,0,0,0,0,0,0,0,0,0,0,0,0,0,0,0,0,0,0,0,0],"sum_hessian":[9.583354E3,6.663593E3,2.9197605E3,6.2224946E3,4.4109833E2,4.6286504E3,1.593844E3,3.0692965E1,4.1040536E2,5.125271E2,4.1161235E3,1.5796292E2,1.4358811E3,1.7501976E1,1.3190989E1,3.1725925E2,9.31461E1,3.7522775E2,1.3729933E2,2.133193E3,1.9829302E3,6.879674E1,8.9166176E1,8.672282E0,1.4272089E3,1.0523662E1,2.667327E0,3.7409277E2,1.1349819E0,1.23919334E2,1.3380001E1,2.0658047E3,6.738861E1,1.9710068E3,1.1923363E1,2.1746412E1,4.7050327E1,4.868375E1,4.0482426E1,1.3793677E3,4.7841106E1],"tree_param":{"num_deleted":"0","num_feature":"20","num_nodes":"41","size_leaf_vector":"1"}},{"base_weights":[-4.0215626E-2,-5.301568E-1,1.254392E-1,-1.5746355E-1,-1.6736454E-1,-1.5519091E-1,1.5673205E-1,5.321839E-2,2.4340698E-1,1.00156315E-1,-6.807894E-1,2.710534E-1,9.8490976E-2,2.7684736E-1,1.5735742E-2,-1.4569668E-1,-6.9684476E-1,2.738887E-1,-3.5974333E-1,-6.7198765E-1,2.5478542E-1,1.07617766E-1,-2.927332E-2,-2.7871305E-1,3.976218E-2,-1.5961528E-1,-2.1407339E-1,-1.82537E-1,8.32979E-2,4.618634E-2,-2.673303E-1,8.8418946E-2,-1.8806744E-1],"categories":[],"categories_nodes":[],"categories_segments":[],"categories_sizes":[],"default_left":[1,1,0,0,0,0,0,0,0,0,1,0,0,0,0,0,0,0,0,0,0,0,0,0,0,0,0,0,0,0,0,0,0],"id":24,"left_children":[1,3,5,-1,-1,-1,7,9,11,13,15,17,19,21,23,-1,25,27,-1,29,31,-1,-1,-1,-1,-1,-1,-1,-1,-1,-1,-1,-1],"loss_changes":[7.110126E2,3.1066895E-2,1.3176471E2,0E0,0E0,0E0,5.6007767E1,9.814953E1,1.3587448E1,3.9920746E1,1.9804382E-1,1.2221466E1,6.591931E1,2.6563324E1,2.0011711E2,0E0,5.028534E-2,9.646469E0,0E0,1.6850498E1,1.6195982E1,0E0,0E0,0E0,0E0,0E0,0E0,0E0,0E0,0E0,0E0,0E0,0E0],"parents":[2147483647,0,0,1,1,2,2,6,6,7,7,8,8,9,9,10,10,11,11,12,12,13,13,14,14,16,16,17,17,19,19,20,20],"right_children":[2,4,6,-1,-1,-1,8,10,12,14,16,18,20,22,24,-1,26,28,-1,30,32,-1,-1,-1,-1,-1,-1,-1,-1,-1,-1,-1,-1],"split_conditions":[4.9979195E1,3.3300625E3,3.21419E3,-1.5746355E-1,-1.6736454E-1,-1.5519091E-1,3.33792E3,3.319249E3,3.359991E3,3.2509888E3,1.8014166E1,3.42176E3,3.38008E3,6.874083E1,3.2521602E3,-1.4569668E-1,5.0011E1,4.7071427E-1,-3.5974333E-1,3.362787E3,7.8550896E1,1.07617766E-1,-2.927332E-2,-2.7871305E-1,3.976218E-2,-1.5961528E-1,-2.1407339E-1,-1.82537E-1,8.32979E-2,4.618634E-2,-2.673303E-1,8.8418946E-2,-1.8806744E-1],"split_indices":[16,11,7,0,0,0,8,15,15,15,17,0,7,16,14,0,16,12,0,15,16,0,0,0,0,0,0,0,0,0,0,0,0],"split_type":[0,0,0,0,0,0,0,0,0,0,0,0,0,0,0,0,0,0,0,0,0,0,0,0,0,0,0,0,0,0,0,0,0],"sum_hessian":[8.758687E3,2.2125732E3,6.5461133E3,1.8754557E3,3.3711765E2,3.0318976E2,6.2429233E3,2.8458323E3,3.3970913E3,2.6755981E3,1.702341E2,2.8521084E3,5.449829E2,8.643165E2,1.8112815E3,1.5317437E1,1.5491667E2,2.8474307E3,4.6776004E0,9.135151E1,4.5363144E2,7.0925916E2,1.5505739E2,1.9852808E2,1.6127534E3,1.7303413E1,1.3761325E2,1.143509E1,2.8359956E3,1.9215715E1,7.213579E1,4.3460727E2,1.9024162E1],"tree_param":{"num_deleted":"0","num_feature":"20","num_nodes":"33","size_leaf_vector":"1"}},{"base_weights":[6.772001E-2,1.9852178E-2,1.6034722E-1,1.6037977E-1,7.926051E-3,3.0236071E-2,-6.955486E-2,1.8545268E-2,2.2581592E0,2.1657695E-1,-8.833094E-2,-6.914399E-2,6.787479E-2,1.3951426E0,3.0183752E0,-9.676342E-2,1.6448523E0,-3.0853838E-2,5.380104E-2,1.1265876E-2,1.13484964E-1,2.5050068E-1,5.518623E-1,1.0022786E0,2.6082867E-1,-7.9864055E-2,-1.2812874E-2,-8.6718E-2,9.9259573E-1],"categories":[],"categories_nodes":[],"categories_segments":[],"categories_sizes":[],"default_left":[0,1,0,0,0,0,0,0,0,0,0,0,0,0,0,0,0,0,0,0,0,0,0,0,0,0,0,0,0],"id":25,"left_children":[1,3,-1,-1,5,7,9,11,13,-1,15,17,19,21,23,25,27,-1,-1,-1,-1,-1,-1,-1,-1,-1,-1,-1,-1],"loss_changes":[2.4246397E2,6.0426693E1,0E0,0E0,1.6634665E1,1.9456274E2,3.2036392E1,3.2159653E1,2.137149E1,0E0,3.0887295E1,2.2434132E1,4.4767075E1,3.4726791E0,1.0869431E1,1.916175E1,3.3890137E1,0E0,0E0,0E0,0E0,0E0,0E0,0E0,0E0,0E0,0E0,0E0,0E0],"parents":[2147483647,0,0,1,1,4,4,5,5,6,6,7,7,8,8,10,10,11,11,12,12,13,13,14,14,15,15,16,16],"right_children":[2,4,-1,-1,6,8,10,12,14,-1,16,18,20,22,24,26,28,-1,-1,-1,-1,-1,-1,-1,-1,-1,-1,-1,-1],"split_conditions":[6.88742E3,1.8014166E1,1.6034722E-1,1.6037977E-1,3.35807E3,3.3567925E3,3.8882133E1,4.146457E1,5.3133774E1,2.1657695E-1,7.966086E1,3.32674E3,3.3341287E3,3.3511616E3,3.3530767E3,3.36247E3,1.1992857E0,-3.0853838E-2,5.380104E-2,1.1265876E-2,1.13484964E-1,2.5050068E-1,5.518623E-1,1.0022786E0,2.6082867E-1,-7.9864055E-2,-1.2812874E-2,-8.6718E-2,9.9259573E-1],"split_indices":[5,17,0,0,8,11,16,16,16,0,16,3,15,15,15,0,12,0,0,0,0,0,0,0,0,0,0,0,0],"split_type":[0,0,0,0,0,0,0,0,0,0,0,0,0,0,0,0,0,0,0,0,0,0,0,0,0,0,0,0,0],"sum_hessian":[1.0851229E4,9.842873E3,1.00835474E3,2.2189224E2,9.620981E3,7.470515E3,2.1504663E3,7.432522E3,3.799309E1,4.8965115E1,2.1015012E3,2.6757131E3,4.7568086E3,1.9121298E1,1.8871792E1,2.0922659E3,9.235361E0,2.3566592E3,3.1905408E2,4.3345176E3,4.2229114E2,9.732701E0,9.388597E0,1.5926558E1,2.9452336E0,5.050598E2,1.587206E3,4.6531057E0,4.582256E0],"tree_param":{"num_deleted":"0","num_feature":"20","num_nodes":"29","size_leaf_vector":"1"}},{"base_weights":[-4.5331676E-2,1.4553323E-1,-1.5911943E-1,1.8555437E-1,-5.082336E-1,2.0934604E-1,1.66404E-2,-2.0570959E-1,-1.5998499E-1,1.3678E-1,2.774156E-1,-6.2032443E-1,3.0354846E-1,-1.7135844E-1,2.8749445E-1,2.0905794E-1,-1.2891933E0,2.8024724E-1,-4.399417E-1,-7.6020247E-1,8.105402E-1,3.714098E-1,-3.9052328E-1,1.5174244E-1,-1.3216817E-1,6.483038E-2,-5.1087886E-1,-3.9708132E-1,-1.2775142E-1,1.13159545E-1,6.997946E-2,-1.2981379E-1,-2.298507E-1,2.8315926E-1,-1.7219216E-1,-5.669331E-1,1.1662778E-1,1.4515153E-1,-2.6729843E-1],"categories":[],"categories_nodes":[],"categories_segments":[],"categories_sizes":[],"default_left":[0,0,0,0,0,1,1,0,0,1,0,0,0,0,0,0,0,0,0,1,0,0,0,0,0,0,0,0,0,0,0,0,0,0,0,0,0,0,0],"id":26,"left_children":[1,3,-1,5,7,9,11,13,-1,15,17,19,21,-1,23,25,27,29,-1,31,33,35,37,-1,-1,-1,-1,-1,-1,-1,-1,-1,-1,-1,-1,-1,-1,-1,-1],"loss_changes":[7.8154675E2,1.5860258E2,0E0,2.2941208E1,2.540619E0,2.4681656E1,1.292059E2,5.2785273E0,0E0,2.5012201E2,1.3157349E1,4.456224E1,2.3102276E1,0E0,2.2479863E0,3.14505E1,2.914856E0,1.1654373E1,0E0,6.0302734E-2,4.2403784E0,1.8172955E1,1.9640697E1,0E0,0E0,0E0,0E0,0E0,0E0,0E0,0E0,0E0,0E0,0E0,0E0,0E0,0E0,0E0,0E0],"parents":[2147483647,0,0,1,1,3,3,4,4,5,5,6,6,7,7,9,9,10,10,11,11,12,12,14,14,15,15,16,16,17,17,19,19,20,20,21,21,22,22],"right_children":[2,4,-1,6,8,10,12,14,-1,16,18,20,22,-1,24,26,28,30,-1,32,34,36,38,-1,-1,-1,-1,-1,-1,-1,-1,-1,-1,-1,-1,-1,-1,-1,-1],"split_conditions":[5.0011E1,3.36146E3,-1.5911943E-1,3.32996E3,3.364738E3,3.3103442E3,3.359991E3,3.36419E3,-1.5998499E-1,3.3028086E3,3.33101E3,4.9979195E1,3.366192E3,-1.7135844E-1,3.3643142E3,3.29928E3,3.3045835E3,3.3174292E3,-4.399417E-1,1.8014166E1,1.19E2,3.33188E3,3.33853E3,1.5174244E-1,-1.3216817E-1,6.483038E-2,-5.1087886E-1,-3.9708132E-1,-1.2775142E-1,1.13159545E-1,6.997946E-2,-1.2981379E-1,-2.298507E-1,2.8315926E-1,-1.7219216E-1,-5.669331E-1,1.1662778E-1,1.4515153E-1,-2.6729843E-1],"split_indices":[16,6,0,3,9,15,15,0,0,14,7,16,14,0,14,5,15,15,0,17,4,8,5,0,0,0,0,0,0,0,0,0,0,0,0,0,0,0,0],"split_type":[0,0,0,0,0,0,0,0,0,0,0,0,0,0,0,0,0,0,0,0,0,0,0,0,0,0,0,0,0,0,0,0,0,0,0,0,0,0,0],"sum_hessian":[8.439823E3,6.0571455E3,2.382678E3,5.708414E3,3.4873132E2,5.0034365E3,7.049774E2,2.7372053E1,3.2135925E2,2.4231887E3,2.580248E3,2.1856934E2,4.8640808E2,1.563082E1,1.1741233E1,2.3071025E3,1.1608615E2,2.576903E3,3.344958E0,1.9953223E2,1.9037107E1,4.4350977E2,4.2898315E1,9.267541E0,2.473692E0,2.2995188E3,7.58389E0,1.1112395E2,4.9622083E0,8.3885114E2,1.7380519E3,4.885735E0,1.9464648E2,1.765524E1,1.3818681E0,2.555248E0,4.409545E2,1.562809E1,2.7270226E1],"tree_param":{"num_deleted":"0","num_feature":"20","num_nodes":"39","size_leaf_vector":"1"}},{"base_weights":[-4.15568E-2,-1.5761997E-1,1.0312274E-1,-4.7602144E-1,1.2906851E-1,-4.748973E-2,-5.281962E-1,4.0405616E-2,2.0722185E-1,-1.5511598E-1,3.9844915E-1,-1.5314354E-1,-2.1851282E-1,1.0004968E-1,-3.4777477E-1,2.3751572E-1,8.7071836E-2,-1.5984976E-1,1.6926038E-1,-2.7064275E-2,2.0615943E-1,-7.6791066E-1,-4.970795E-3,3.407658E-1,1.996806E-1,-8.01665E-1,1.730258E-1,5.1794033E-2,-2.4012347E-1,7.7664986E-2,-7.753481E-2,-2.7098694E-1,-1.9114198E-1,7.420169E-2,-2.0172127E-1,-3.1111184E-1,1.0344712E-1,-4.8983908E-1,6.1165836E-2,-1.9559865E-1,-5.052003E-1,-5.6005275E-1,5.7813365E-2],"categories":[],"categories_nodes":[],"categories_segments":[],"categories_sizes":[],"default_left":[1,0,0,0,0,0,0,0,0,0,0,0,0,0,1,0,0,0,0,0,0,0,0,0,0,1,0,0,0,0,0,0,0,0,0,0,0,0,0,0,0,0,0],"id":27,"left_children":[1,-1,3,5,7,9,11,13,15,-1,17,-1,-1,19,21,23,25,-1,-1,27,29,31,33,35,37,39,41,-1,-1,-1,-1,-1,-1,-1,-1,-1,-1,-1,-1,-1,-1,-1,-1],"loss_changes":[5.514531E2,0E0,9.118923E1,5.7938614E0,4.0218178E1,6.3510437E0,4.5069885E-1,6.3033516E1,1.1209106E1,0E0,2.7112308E0,0E0,0E0,3.1829096E1,5.222301E1,9.555283E0,4.7717613E1,0E0,0E0,1.6606491E2,3.1570042E1,2.3088913E0,3.3963684E1,4.043236E0,1.4244827E1,6.1788864E0,2.3197678E1,0E0,0E0,0E0,0E0,0E0,0E0,0E0,0E0,0E0,0E0,0E0,0E0,0E0,0E0,0E0,0E0],"parents":[2147483647,0,0,2,2,3,3,4,4,5,5,6,6,7,7,8,8,10,10,13,13,14,14,15,15,16,16,19,19,20,20,21,21,22,22,23,23,24,24,25,25,26,26],"right_children":[2,-1,4,6,8,10,12,14,16,-1,18,-1,-1,20,22,24,26,-1,-1,28,30,32,34,36,38,40,42,-1,-1,-1,-1,-1,-1,-1,-1,-1,-1,-1,-1,-1,-1,-1,-1],"split_conditions":[4.9979195E1,-1.5761997E-1,3.22278E3,3.21795E3,3.33941E3,3.21663E3,3.21419E3,3.306414E3,3.356391E3,-1.5511598E-1,1.415E0,-1.5314354E-1,-2.1851282E-1,3.29661E3,3.3212275E3,5.502743E1,3.36992E3,-1.5984976E-1,1.6926038E-1,3.2544128E3,2.04E2,3.3174292E3,5.502743E1,3.33539E3,3.33797E3,3.369306E3,6.05E-1,5.1794033E-2,-2.4012347E-1,7.7664986E-2,-7.753481E-2,-2.7098694E-1,-1.9114198E-1,7.420169E-2,-2.0172127E-1,-3.1111184E-1,1.0344712E-1,-4.8983908E-1,6.1165836E-2,-1.9559865E-1,-5.052003E-1,-5.6005275E-1,5.7813365E-2],"split_indices":[16,0,8,5,8,3,7,15,15,0,12,0,0,8,14,16,7,0,0,15,4,15,16,3,3,14,12,0,0,0,0,0,0,0,0,0,0,0,0,0,0,0,0],"split_type":[0,0,0,0,0,0,0,0,0,0,0,0,0,0,0,0,0,0,0,0,0,0,0,0,0,0,0,0,0,0,0,0,0,0,0,0,0,0,0,0,0,0,0],"sum_hessian":[7.8758804E3,1.812342E3,6.063538E3,2.5925574E2,5.804282E3,2.8346338E1,2.309094E2,2.720015E3,3.0842676E3,1.3729752E1,1.4616588E1,2.1539507E2,1.5514329E1,2.3583896E3,3.616252E2,2.4624292E3,6.218383E2,1.8738256E0,1.2742762E1,1.073335E3,1.2850546E3,1.6192816E2,1.9969707E2,6.5820764E2,1.8042217E3,5.410306E1,5.677352E2,8.536604E2,2.1967455E2,1.1544862E3,1.3056836E2,7.665963E1,8.526854E1,1.4537166E2,5.4325405E1,1.1853327E0,6.570223E2,3.244473E0,1.8009772E3,4.7743355E1,6.359705E0,4.5295925E0,5.632057E2],"tree_param":{"num_deleted":"0","num_feature":"20","num_nodes":"43","size_leaf_vector":"1"}},{"base_weights":[6.917935E-2,3.223769E-2,1.5743575E-1,1.5787283E-1,2.2704542E-2,-8.9197455E-4,8.8311374E-2,6.3245654E-2,-4.0553395E-2,3.3373335E-1,5.241316E-2,3.727651E-2,2.007933E0,-3.0092877E-1,-1.2403593E-2,1.1213206E-1,7.606901E-1,3.759026E-2,5.811973E-1,7.849174E-3,3.7120837E-1,8.910068E-1,3.4440726E-1,-9.4880916E-2,7.5921446E-1,6.5379024E-1,-7.883125E-3,2.6835438E-2,6.266987E-1,3.032943E-1,-2.0284977E-2,-3.0634891E-2,2.593769E-2,-1.267944E-1,2.3365901E-1],"categories":[],"categories_nodes":[],"categories_segments":[],"categories_sizes":[],"default_left":[0,1,0,0,0,0,0,0,0,0,0,0,0,0,0,0,0,0,0,0,0,0,0,0,0,0,0,0,0,0,0,0,0,0,0],"id":28,"left_children":[1,3,-1,-1,5,7,9,11,13,15,17,19,21,23,25,27,29,31,33,-1,-1,-1,-1,-1,-1,-1,-1,-1,-1,-1,-1,-1,-1,-1,-1],"loss_changes":[1.70866E2,4.422148E1,0E0,0E0,1.4266932E1,1.7246786E1,2.1460117E1,1.3075603E2,3.0702066E1,2.932962E1,1.6656998E1,3.4074535E1,2.481813E1,1.8553745E1,1.150443E2,9.042236E0,2.2055233E1,1.4147859E1,1.1828802E1,0E0,0E0,0E0,0E0,0E0,0E0,0E0,0E0,0E0,0E0,0E0,0E0,0E0,0E0,0E0,0E0],"parents":[2147483647,0,0,1,1,4,4,5,5,6,6,7,7,8,8,9,9,10,10,11,11,12,12,13,13,14,14,15,15,16,16,17,17,18,18],"right_children":[2,4,-1,-1,6,8,10,12,14,16,18,20,22,24,26,28,30,32,34,-1,-1,-1,-1,-1,-1,-1,-1,-1,-1,-1,-1,-1,-1,-1,-1],"split_conditions":[6.88742E3,1.8014166E1,1.5743575E-1,1.5787283E-1,1.97E2,3.30703E3,1.4392858E0,3.3055635E3,3.30998E3,5.1896435E1,7.742104E1,7.476859E1,4.889639E1,3.31103E3,3.30906E3,5.8309814E1,7.652013E1,2.2611177E1,1.4792857E0,7.849174E-3,3.7120837E-1,8.910068E-1,3.4440726E-1,-9.4880916E-2,7.5921446E-1,6.5379024E-1,-7.883125E-3,2.6835438E-2,6.266987E-1,3.032943E-1,-2.0284977E-2,-3.0634891E-2,2.593769E-2,-1.267944E-1,2.3365901E-1],"split_indices":[5,17,0,0,4,8,12,11,3,16,16,16,16,7,7,17,16,17,12,0,0,0,0,0,0,0,0,0,0,0,0,0,0,0,0],"split_type":[0,0,0,0,0,0,0,0,0,0,0,0,0,0,0,0,0,0,0,0,0,0,0,0,0,0,0,0,0,0,0,0,0,0,0],"sum_hessian":[1.0151954E4,9.391537E3,7.604174E2,1.7677744E2,9.21476E3,6.7779507E3,2.4368088E3,2.5896147E3,4.188336E3,3.0989334E2,2.1269155E3,2.5564949E3,3.3119987E1,4.0768723E2,3.7806484E3,2.0483925E2,1.0505409E2,2.0699614E3,5.695415E1,2.5340518E3,2.2443129E1,1.44731455E1,1.8646843E1,4.0637393E2,1.3132896E0,2.2799177E1,3.7578494E3,2.0354916E2,1.2900751E0,8.050671E1,2.454739E1,5.361417E2,1.5338196E3,9.182535E0,4.7771614E1],"tree_param":{"num_deleted":"0","num_feature":"20","num_nodes":"35","size_leaf_vector":"1"}},{"base_weights":[-4.998871E-2,1.17468536E-1,-1.5774027E-1,1.4899287E-1,-5.1450384E-1,1.21903725E-1,3.0117086E-1,-2.3816997E-1,-1.5932414E-1,1.6350093E-1,-8.3002216E-1,3.2384443E-1,-2.1866603E-1,1.3567744E-1,-1.4324024E-1,-5.720148E-2,1.8833241E-1,-2.0262775E0,-2.1086289E-1,-5.330196E-1,3.2997447E-1,8.054168E-2,-2.502711E-1,8.515298E-2,4.2111497E-2,-3.8682947E-1,-8.03798E-1,-3.8158113E-1,1.0040388E-1],"categories":[],"categories_nodes":[],"categories_segments":[],"categories_sizes":[],"default_left":[0,0,0,1,0,0,0,0,0,1,0,0,0,0,0,0,0,1,0,0,0,0,0,0,0,0,0,0,0],"id":29,"left_children":[1,3,-1,5,7,9,11,13,-1,15,17,19,-1,-1,-1,21,23,25,-1,-1,27,-1,-1,-1,-1,-1,-1,-1,-1],"loss_changes":[5.978411E2,1.1065041E2,0E0,2.1759338E1,1.0824738E0,1.779277E2,1.887999E1,2.9832475E0,0E0,2.3591866E1,2.719365E1,1.0652969E1,0E0,0E0,0E0,1.1053875E2,1.7678177E1,4.988121E0,0E0,0E0,6.307335E0,0E0,0E0,0E0,0E0,0E0,0E0,0E0,0E0],"parents":[2147483647,0,0,1,1,3,3,4,4,5,5,6,6,7,7,9,9,10,10,11,11,15,15,16,16,17,17,20,20],"right_children":[2,4,-1,6,8,10,12,14,-1,16,18,20,-1,-1,-1,22,24,26,-1,-1,28,-1,-1,-1,-1,-1,-1,-1,-1],"split_conditions":[5.0011E1,3.36155E3,-1.5774027E-1,3.35367E3,7.657143E-1,3.3327825E3,3.369306E3,3.36419E3,-1.5932414E-1,3.2206165E3,3.32996E3,3.3014001E3,-2.1866603E-1,1.3567744E-1,-1.4324024E-1,3.2104832E3,3.24723E3,3.3326174E3,-2.1086289E-1,-5.330196E-1,3.30359E3,8.054168E-2,-2.502711E-1,8.515298E-2,4.2111497E-2,-3.8682947E-1,-8.03798E-1,-3.8158113E-1,1.0040388E-1],"split_indices":[16,5,0,15,12,14,14,5,0,15,3,13,0,0,0,14,3,15,0,0,8,0,0,0,0,0,0,0,0],"split_type":[0,0,0,0,0,0,0,0,0,0,0,0,0,0,0,0,0,0,0,0,0,0,0,0,0,0,0,0,0],"sum_hessian":[7.5014214E3,5.549193E3,1.9522289E3,5.286265E3,2.629276E2,4.488984E3,7.9728125E2,1.5749467E1,2.4717815E2,4.301831E3,1.8715298E2,7.8078033E2,1.6500908E1,3.8246207E0,1.1924847E1,4.3492337E2,3.8669075E3,1.6545698E1,1.7060728E2,1.431435E0,7.793489E2,3.0693445E2,1.27988914E2,1.2910146E3,2.5758928E3,9.171651E0,7.3740473E0,1.4936392E0,7.778552E2],"tree_param":{"num_deleted":"0","num_feature":"20","num_nodes":"29","size_leaf_vector":"1"}},{"base_weights":[-4.268392E-2,-1.565789E-1,8.407062E-2,-1.5258354E-1,1.0286519E-1,-1.1553589E-2,1.522964E-1,2.3159306E-2,-1.5203996E0,2.707251E-1,1.2111487E-1,2.1920732E-1,-1.572746E-1,-1.9546567E0,-2.0300584E-1,2.9073733E-1,-1.1072103E0,-2.7867028E-1,1.6465789E-1,8.871963E-2,-2.948707E-2,-2.4494109E-1,6.4901817E-3,-2.4450648E-1,-6.3583356E-1,9.073919E-2,-3.683951E-1,-6.9444805E-1,6.8373874E-2,-2.4993677E-2,-2.6729047E-1,6.774634E-2,3.18502E-2],"categories":[],"categories_nodes":[],"categories_segments":[],"categories_sizes":[],"default_left":[1,0,0,0,0,0,0,0,0,0,0,0,0,0,0,0,0,0,0,0,0,0,0,0,0,0,0,0,0,0,0,0,0],"id":30,"left_children":[1,-1,3,-1,5,7,9,11,13,15,17,19,21,23,-1,25,27,29,31,-1,-1,-1,-1,-1,-1,-1,-1,-1,-1,-1,-1,-1,-1],"loss_changes":[4.3411093E2,0E0,6.3008884E1,0E0,3.0989716E1,8.665741E1,1.4096085E1,5.7256115E1,1.2309898E1,2.228901E1,5.2799686E1,1.8875546E1,9.9430725E1,2.786354E0,0E0,1.4369675E1,1.924958E1,3.5573956E1,9.754829E0,0E0,0E0,0E0,0E0,0E0,0E0,0E0,0E0,0E0,0E0,0E0,0E0,0E0,0E0],"parents":[2147483647,0,0,2,2,4,4,5,5,6,6,7,7,8,8,9,9,10,10,11,11,12,12,13,13,15,15,16,16,17,17,18,18],"right_children":[2,-1,4,-1,6,8,10,12,14,16,18,20,22,24,-1,26,28,30,32,-1,-1,-1,-1,-1,-1,-1,-1,-1,-1,-1,-1,-1,-1],"split_conditions":[4.9979195E1,-1.565789E-1,3.21419E3,-1.5258354E-1,3.31466E3,3.31237E3,3.3017598E3,3.2509888E3,3.3000552E3,3.36587E3,3.33532E3,6.874083E1,3.2521602E3,3.30777E3,-2.0300584E-1,2.81E2,2.98E2,6.3198254E1,3.3341287E3,8.871963E-2,-2.948707E-2,-2.4494109E-1,6.4901817E-3,-2.4450648E-1,-6.3583356E-1,9.073919E-2,-3.683951E-1,-6.9444805E-1,6.8373874E-2,-2.4993677E-2,-2.6729047E-1,6.774634E-2,3.18502E-2],"split_indices":[16,0,7,0,8,5,15,15,15,6,8,16,14,7,0,4,4,16,15,0,0,0,0,0,0,0,0,0,0,0,0,0,0],"split_type":[0,0,0,0,0,0,0,0,0,0,0,0,0,0,0,0,0,0,0,0,0,0,0,0,0,0,0,0,0,0,0,0,0],"sum_hessian":[7.14454E3,1.4937416E3,5.6507983E3,1.7288385E2,5.4779146E3,1.6528398E3,3.825075E3,1.6166318E3,3.6207993E1,7.956146E2,3.0294602E3,7.746891E2,8.4194275E2,2.3035135E1,1.3172859E1,7.8500275E2,1.0611864E1,2.970186E2,2.7324417E3,6.242886E2,1.5040048E2,1.7896724E2,6.629755E2,3.6611812E0,1.9373955E1,7.797826E2,5.2201385E0,5.186706E0,5.425158E0,2.2603618E2,7.09824E1,1.3343054E3,1.3981362E3],"tree_param":{"num_deleted":"0","num_feature":"20","num_nodes":"33","size_leaf_vector":"1"}},{"base_weights":[6.813112E-2,3.7801366E-2,4.9218613E-1,1.5572225E-1,3.0350938E-2,5.4473597E-1,-7.5009647E-3,3.9051387E-2,-1.2751992E-1,2.178414E0,1.5531075E-1,-1.1945983E-1,5.8066636E-1,3.509144E-2,2.9665937E0,7.654299E-1,-1.4182183E-1,1.08912684E-1,2.4025266E0,3.9089411E-1,-2.8871113E-1,2.8709553E-2,6.4665264E-1,1.2796661E-1,1.0138663E0,1.9677497E-1,-1.8314835E-1,2.7041726E0,2.5942057E-1,9.214925E-3,1.6407152E0,-3.6749366E-1,2.5176626E-1,1.193272E-2,-5.0060667E-2,1.6230984E-1,5.3459084E-1,7.314632E-1,-5.847987E-2,2.650717E-1,8.8649684E-1,2.5212204E-1,-6.8373576E-2,1.3258484E-1,5.82273E-1,3.8827747E-2,-1.3165909E-1,5.311262E-1,-1.18639395E-1],"categories":[],"categories_nodes":[],"categories_segments":[],"categories_sizes":[],"default_left":[0,1,0,0,0,0,0,0,0,0,0,0,0,0,0,0,0,0,0,0,0,0,0,0,0,0,0,0,0,0,0,0,0,0,0,0,0,0,0,0,0,0,0,0,0,0,0,0,0],"id":31,"left_children":[1,3,5,-1,7,9,11,13,15,17,-1,19,-1,21,23,-1,25,-1,27,29,31,33,35,-1,-1,-1,37,39,-1,41,43,45,47,-1,-1,-1,-1,-1,-1,-1,-1,-1,-1,-1,-1,-1,-1,-1,-1],"loss_changes":[1.2337874E2,3.20941E1,1.6818176E1,0E0,1.2119048E1,2.4461319E1,1.3701213E1,9.680849E1,1.8020912E1,2.8382492E0,0E0,5.2512646E0,0E0,3.2568314E1,1.03909E1,0E0,1.5265586E1,0E0,1.3446693E0,7.2547255E0,2.019176E0,1.789286E1,9.370239E0,0E0,0E0,0E0,1.399207E1,2.0546341E-1,0E0,2.6907754E0,4.231863E-1,1.4717798E0,6.9415503E0,0E0,0E0,0E0,0E0,0E0,0E0,0E0,0E0,0E0,0E0,0E0,0E0,0E0,0E0,0E0,0E0],"parents":[2147483647,0,0,1,1,2,2,4,4,5,5,6,6,7,7,8,8,9,9,11,11,13,13,14,14,16,16,18,18,19,19,20,20,21,21,22,22,26,26,27,27,29,29,30,30,31,31,32,32],"right_children":[2,4,6,-1,8,10,12,14,16,18,-1,20,-1,22,24,-1,26,-1,28,30,32,34,36,-1,-1,-1,38,40,-1,42,44,46,48,-1,-1,-1,-1,-1,-1,-1,-1,-1,-1,-1,-1,-1,-1,-1,-1],"split_conditions":[3.42923E3,1.8014166E1,3.42666E3,1.5572225E-1,3.38975E3,6.88742E3,7.1816734E1,3.3891416E3,8.357143E-1,4.9478127E1,1.5531075E-1,2.0032326E1,5.8066636E-1,3.376177E3,4.9478127E1,7.654299E-1,5.0469555E1,1.08912684E-1,7.966086E1,1.51E2,2.87E2,3.37515E3,3.38684E3,1.2796661E-1,1.0138663E0,1.9677497E-1,3.38742E3,3.344191E3,2.5942057E-1,1.1085714E0,1.8123459E1,3.4088438E3,2.6892858E0,1.193272E-2,-5.0060667E-2,1.6230984E-1,5.3459084E-1,7.314632E-1,-5.847987E-2,2.650717E-1,8.8649684E-1,2.5212204E-1,-6.8373576E-2,1.3258484E-1,5.82273E-1,3.8827747E-2,-1.3165909E-1,5.311262E-1,-1.18639395E-1],"split_indices":[6,17,7,0,8,5,16,9,12,16,0,17,0,14,16,0,16,0,16,4,4,8,0,0,0,0,3,15,0,12,17,14,12,0,0,0,0,0,0,0,0,0,0,0,0,0,0,0,0],"split_type":[0,0,0,0,0,0,0,0,0,0,0,0,0,0,0,0,0,0,0,0,0,0,0,0,0,0,0,0,0,0,0,0,0,0,0,0,0,0,0,0,0,0,0,0,0,0,0,0,0],"sum_hessian":[9.593334E3,8.954004E3,6.3932947E2,1.3545406E2,8.81855E3,5.7841046E2,6.091896E1,8.358648E3,4.5990225E2,8.120056E0,5.702904E2,5.8487434E1,2.4315271E0,8.348367E3,1.0280444E1,1.5001721E0,4.5840207E2,1.1801815E0,6.939875E0,1.4239783E1,4.4247654E1,8.263185E3,8.5182724E1,1.7219565E0,8.558488E0,2.184524E1,4.3655682E2,5.167721E0,1.7721542E0,1.1680181E1,2.559603E0,3.8897785E1,5.3498683E0,7.8214307E3,4.41754E2,7.928344E1,5.8992867E0,1.0322995E0,4.3552454E2,1.1733708E0,3.99435E0,2.0278633E0,9.652317E0,1.0077142E0,1.5518888E0,4.782908E0,3.4114876E1,1.0801173E0,4.2697506E0],"tree_param":{"num_deleted":"0","num_feature":"20","num_nodes":"49","size_leaf_vector":"1"}},{"base_weights":[-5.1556095E-2,9.5378675E-2,-1.5670411E-1,1.2093503E-1,-5.0972027E-1,9.641326E-2,2.628213E-1,-2.09126E-1,-1.5833217E-1,1.340827E-1,-7.6224893E-1,2.988684E-1,-3.5576072E-1,1.294156E-1,-1.3922794E-1,6.318881E-2,2.1076158E-1,-1.4163785E0,-2.0085077E-1,-4.670833E-1,3.0518368E-1,4.0659165E-1,-2.3502658E-1,4.0494718E-2,-3.3109474E-1,9.280277E-2,4.6225756E-2,-7.737478E-2,-4.3885684E-1,9.29239E-2,-4.1626087E-1,-1.20978326E-1,1.565904E-1],"categories":[],"categories_nodes":[],"categories_segments":[],"categories_sizes":[],"default_left":[0,0,0,1,0,0,0,0,0,1,0,0,0,0,0,0,0,1,0,0,0,0,0,0,0,0,0,0,0,0,0,0,0],"id":32,"left_children":[1,3,-1,5,7,9,11,13,-1,15,17,19,21,-1,-1,23,25,27,-1,-1,29,31,-1,-1,-1,-1,-1,-1,-1,-1,-1,-1,-1],"loss_changes":[4.6788254E2,7.9781586E1,0E0,1.7186966E1,1.024353E0,1.3658786E2,1.6348598E1,2.4053743E0,0E0,2.196553E1,9.81942E0,8.548435E0,1.3544436E1,0E0,0E0,1.762579E2,1.080204E1,7.611275E-1,0E0,0E0,5.738365E0,1.6342018E0,0E0,0E0,0E0,0E0,0E0,0E0,0E0,0E0,0E0,0E0,0E0],"parents":[2147483647,0,0,1,1,3,3,4,4,5,5,6,6,7,7,9,9,10,10,11,11,12,12,15,15,16,16,17,17,20,20,21,21],"right_children":[2,4,-1,6,8,10,12,14,-1,16,18,20,22,-1,-1,24,26,28,-1,-1,30,32,-1,-1,-1,-1,-1,-1,-1,-1,-1,-1,-1],"split_conditions":[5.0011E1,3.36155E3,-1.5670411E-1,3.35367E3,7.657143E-1,3.3327825E3,3.366192E3,3.36419E3,-1.5833217E-1,3.3103442E3,3.32996E3,3.29998E3,3.33853E3,1.294156E-1,-1.3922794E-1,3.3028086E3,3.3174292E3,1.8014166E1,-2.0085077E-1,-4.670833E-1,5.522013E1,3.33783E3,-2.3502658E-1,4.0494718E-2,-3.3109474E-1,9.280277E-2,4.6225756E-2,-7.737478E-2,-4.3885684E-1,9.29239E-2,-4.1626087E-1,-1.20978326E-1,1.565904E-1],"split_indices":[16,5,0,15,12,14,14,5,0,15,3,0,5,0,0,14,15,17,0,0,17,7,0,0,0,0,0,0,0,0,0,0,0],"split_type":[0,0,0,0,0,0,0,0,0,0,0,0,0,0,0,0,0,0,0,0,0,0,0,0,0,0,0,0,0,0,0,0,0],"sum_hessian":[6.761977E3,5.1541533E3,1.6078239E3,4.9460566E3,2.0809657E2,4.218641E3,7.274154E2,1.2503033E1,1.9559354E2,4.042156E3,1.7648518E2,6.878487E2,3.9566704E1,3.3629444E0,9.140088E0,2.101254E3,1.9409021E3,2.0143543E1,1.5634164E2,1.5000702E0,6.8634863E2,1.4236992E1,2.5329712E1,1.980294E3,1.2095986E2,7.0688965E2,1.2340123E3,1.0296072E0,1.9113937E1,6.853184E2,1.0302305E0,1.464208E0,1.2772784E1],"tree_param":{"num_deleted":"0","num_feature":"20","num_nodes":"33","size_leaf_vector":"1"}},{"base_weights":[-4.4285912E-2,-1.5561335E-1,6.5658115E-2,-4.5781562E-1,8.161517E-2,-3.4672234E-2,-5.283325E-1,1.5776414E-2,1.4229198E-1,-1.4938793E-1,3.5327992E-1,-1.5088896E-1,-2.0992742E-1,7.8890726E-2,-2.5652334E-1,3.8383377E-1,1.2743533E-1,-1.5624458E-1,1.5845002E-1,-4.0152203E-2,1.8366107E-1,-1.419704E-1,-7.972823E-1,4.4391915E-1,-3.6549693E-1,-7.954483E-1,1.3269648E-1,3.854436E-2,-2.3643096E-1,5.791006E-2,-3.803242E-1,-1.9952898E-1,4.0382435E-4,-5.3309333E-1,-2.1375296E-1,2.8344685E-2,1.517254E-1,4.24997E-2,-6.884508E-2],"categories":[],"categories_nodes":[],"categories_segments":[],"categories_sizes":[],"default_left":[1,0,0,0,0,0,0,0,0,0,0,0,0,0,0,0,0,0,0,0,0,0,0,0,0,0,0,0,0,0,0,0,0,0,0,0,0,0,0],"id":33,"left_children":[1,-1,3,5,7,9,11,13,15,-1,17,-1,-1,19,21,23,25,-1,-1,27,29,31,33,35,-1,-1,37,-1,-1,-1,-1,-1,-1,-1,-1,-1,-1,-1,-1],"loss_changes":[3.422783E2,0E0,4.454117E1,4.688896E0,2.065556E1,4.41848E0,2.3580551E-1,4.266156E1,9.607388E0,0E0,2.3283768E0,0E0,0E0,2.5139454E1,2.8822302E1,1.550285E1,3.7436024E1,0E0,0E0,1.1917973E2,1.48267975E1,2.899086E1,5.4973755E0,3.204813E0,0E0,0E0,8.259666E0,0E0,0E0,0E0,0E0,0E0,0E0,0E0,0E0,0E0,0E0,0E0,0E0],"parents":[2147483647,0,0,2,2,3,3,4,4,5,5,6,6,7,7,8,8,10,10,13,13,14,14,15,15,16,16,19,19,20,20,21,21,22,22,23,23,26,26],"right_children":[2,-1,4,6,8,10,12,14,16,-1,18,-1,-1,20,22,24,26,-1,-1,28,30,32,34,36,-1,-1,38,-1,-1,-1,-1,-1,-1,-1,-1,-1,-1,-1,-1],"split_conditions":[4.9979195E1,-1.5561335E-1,3.22278E3,3.21795E3,3.33941E3,3.21663E3,3.21419E3,3.3017598E3,3.33962E3,-1.4938793E-1,1.415E0,-1.5088896E-1,-2.0992742E-1,3.29588E3,6.3198254E1,3.3326174E3,3.34032E3,-1.5624458E-1,1.5845002E-1,3.2544128E3,3.3368972E3,3.31466E3,3.302409E3,3.33759E3,-3.6549693E-1,-7.954483E-1,3.12E2,3.854436E-2,-2.3643096E-1,5.791006E-2,-3.803242E-1,-1.9952898E-1,4.0382435E-4,-5.3309333E-1,-2.1375296E-1,2.8344685E-2,1.517254E-1,4.24997E-2,-6.884508E-2],"split_indices":[16,0,8,5,8,3,7,15,0,0,12,0,0,8,16,15,3,0,0,15,9,8,15,3,0,0,4,0,0,0,0,0,0,0,0,0,0,0,0],"split_type":[0,0,0,0,0,0,0,0,0,0,0,0,0,0,0,0,0,0,0,0,0,0,0,0,0,0,0,0,0,0,0,0,0,0,0,0,0,0,0],"sum_hessian":[6.560402E3,1.2335834E3,5.3268184E3,1.5675502E2,5.1700635E3,2.2604744E1,1.3415027E2,2.4801643E3,2.6898992E3,1.0172872E1,1.2431872E1,1.2028349E2,1.3866785E1,2.0140526E3,4.661118E2,1.5442336E2,2.5354758E3,1.742872E0,1.0689E1,9.430969E2,1.0709557E3,3.8567413E2,8.043766E1,1.4953818E2,4.8851757E0,3.840713E0,2.531635E3,7.702616E2,1.7283533E2,1.0649458E3,6.009868E0,8.215512E1,3.03519E2,4.8162017E0,7.562146E1,2.2862373E1,1.26675804E2,2.4710498E3,6.058522E1],"tree_param":{"num_deleted":"0","num_feature":"20","num_nodes":"39","size_leaf_vector":"1"}},{"base_weights":[6.581909E-2,4.3976817E-2,1.5373017E-1,1.5426323E-1,3.7808485E-2,-7.5078696E-2,4.8472054E-2,-8.029154E-2,4.859488E-1,1.0570094E-1,1.55202905E-2,-1.0849327E-1,1.0656388E-1,8.4427975E-2,1.2007846E0,-1.6178563E-1,3.8708046E-2,-3.4231633E-2,5.0519407E-1,4.8065463E-1,-8.664704E-3,2.4141049E-2,7.075417E-1,4.8741895E-1,3.1451845E-1,-5.5065565E-2,3.3024964E-1,4.529303E-1,8.317226E-3],"categories":[],"categories_nodes":[],"categories_segments":[],"categories_sizes":[],"default_left":[0,1,0,0,0,0,0,0,0,0,0,0,0,0,0,0,0,0,0,0,0,0,0,0,0,0,0,0,0],"id":34,"left_children":[1,3,-1,-1,5,7,9,11,-1,13,15,17,19,21,23,25,27,-1,-1,-1,-1,-1,-1,-1,-1,-1,-1,-1,-1],"loss_changes":[8.933619E1,2.5314655E1,0E0,0E0,1.0382872E1,6.70854E0,1.4855831E1,3.9281607E0,0E0,6.695894E1,2.0566902E1,6.6933923E0,1.9892561E1,2.523483E1,1.8356476E0,1.610265E1,7.1431755E1,0E0,0E0,0E0,0E0,0E0,0E0,0E0,0E0,0E0,0E0,0E0,0E0],"parents":[2147483647,0,0,1,1,4,4,5,5,6,6,7,7,9,9,10,10,11,11,12,12,13,13,14,14,15,15,16,16],"right_children":[2,4,-1,-1,6,8,10,12,-1,14,16,18,20,22,24,26,28,-1,-1,-1,-1,-1,-1,-1,-1,-1,-1,-1,-1],"split_conditions":[6.88742E3,1.8014166E1,1.5373017E-1,1.5426323E-1,2.967746E1,3.78E2,3.30454E3,3.30998E3,4.859488E-1,3.30429E3,3.31101E3,3.31343E3,3.31437E3,3.3212275E3,4.3871407E1,3.31225E3,3.30906E3,-3.4231633E-2,5.0519407E-1,4.8065463E-1,-8.664704E-3,2.4141049E-2,7.075417E-1,4.8741895E-1,3.1451845E-1,-5.5065565E-2,3.3024964E-1,4.529303E-1,8.317226E-3],"split_indices":[5,17,0,0,16,4,8,3,0,6,6,8,8,14,16,8,7,0,0,0,0,0,0,0,0,0,0,0,0],"split_type":[0,0,0,0,0,0,0,0,0,0,0,0,0,0,0,0,0,0,0,0,0,0,0,0,0,0,0,0,0],"sum_hessian":[9.159222E3,8.733211E3,4.2601047E2,1.1200891E2,8.621202E3,7.435678E2,7.877635E3,7.422376E2,1.3301944E0,2.8776597E3,4.999975E3,6.4526794E2,9.6969666E1,2.8238804E3,5.3779266E1,5.775723E2,4.422403E3,6.441874E2,1.0805864E0,7.153267E0,8.98164E1,2.8200078E3,3.872639E0,1.1665213E1,4.211405E1,5.6862445E2,8.947885E0,3.176473E1,4.390638E3],"tree_param":{"num_deleted":"0","num_feature":"20","num_nodes":"29","size_leaf_vector":"1"}},{"base_weights":[-5.0561905E-2,7.876821E-2,-1.5581936E-1,9.87965E-2,-5.0129634E-1,-1.0047966E-1,1.1695093E-1,-1.7358096E-1,-1.5649971E-1,2.0817515E-1,-7.866689E-1,2.2690608E-1,7.795574E-2,1.2421993E-1,-1.3423389E-1,2.2055042E-1,-4.3248913E-1,-8.049465E-1,-1.3442646E-1,2.3151428E-1,-6.4622295E-1,-6.108511E-1,1.176792E-1,8.36233E-2,-1.2622189E-2,-1.0901429E-1,-2.4347694E-1,5.40756E-2,1.1071881E-1,6.0529012E-2,-3.6471632E-1,-2.3171346E-1,3.684578E-2],"categories":[],"categories_nodes":[],"categories_segments":[],"categories_sizes":[],"default_left":[0,0,0,1,0,0,0,0,0,0,0,0,0,0,0,0,0,0,0,0,0,0,0,0,0,0,0,0,0,0,0,0,0],"id":35,"left_children":[1,3,-1,5,7,9,11,13,-1,15,17,19,21,-1,-1,23,-1,25,-1,27,-1,29,31,-1,-1,-1,-1,-1,-1,-1,-1,-1,-1],"loss_changes":[3.746036E2,5.6309715E1,0E0,1.694944E1,9.8944473E-1,8.307099E1,1.8382595E1,1.9501473E0,0E0,5.846629E0,3.9218903E-1,1.2819874E1,8.6793076E1,0E0,0E0,4.1327076E0,0E0,3.9993286E-2,0E0,7.8426094E0,0E0,8.526752E1,1.3808029E1,0E0,0E0,0E0,0E0,0E0,0E0,0E0,0E0,0E0,0E0],"parents":[2147483647,0,0,1,1,3,3,4,4,5,5,6,6,7,7,9,9,10,10,11,11,12,12,15,15,17,17,19,19,21,21,22,22],"right_children":[2,4,-1,6,8,10,12,14,-1,16,18,20,22,-1,-1,24,-1,26,-1,28,-1,30,32,-1,-1,-1,-1,-1,-1,-1,-1,-1,-1],"split_conditions":[5.0011E1,3.36155E3,-1.5581936E-1,3.2206165E3,7.657143E-1,3.2104832E3,3.24723E3,3.36419E3,-1.5649971E-1,3.2201787E3,3.24395E3,3.6E2,3.299252E3,1.2421993E-1,-1.3423389E-1,2.5235715E0,-4.3248913E-1,1.8014166E1,-1.3442646E-1,3.23474E3,-6.4622295E-1,3.27348E3,1.8278704E1,8.36233E-2,-1.2622189E-2,-1.0901429E-1,-2.4347694E-1,5.40756E-2,1.1071881E-1,6.0529012E-2,-3.6471632E-1,-2.3171346E-1,3.684578E-2],"split_indices":[16,5,0,15,12,14,3,5,0,15,0,4,15,0,0,12,0,17,0,8,0,6,17,0,0,0,0,0,0,0,0,0,0],"split_type":[0,0,0,0,0,0,0,0,0,0,0,0,0,0,0,0,0,0,0,0,0,0,0,0,0,0,0,0,0,0,0,0,0],"sum_hessian":[6.1763745E3,4.8416265E3,1.3347483E3,4.6808374E3,1.6078885E2,3.904492E2,4.290388E3,9.966299E0,1.5082256E2,2.6979108E2,1.2065812E2,1.1219619E3,3.1684265E3,3.0054374E0,6.9608617E0,2.686423E2,1.1487787E0,1.1317138E2,7.48674E0,1.1206957E3,1.2662493E0,1.7197604E2,2.9964504E3,2.1986246E2,4.877984E1,2.502979E0,1.106684E2,8.181089E2,3.0258673E2,7.367011E1,9.830592E1,1.6347992E1,2.9801023E3],"tree_param":{"num_deleted":"0","num_feature":"20","num_nodes":"33","size_leaf_vector":"1"}},{"base_weights":[-4.2734515E-2,-1.5484844E-1,5.3182613E-2,-4.4509158E-1,6.560428E-2,-3.0174086E-2,-5.251548E-1,4.5699435E-1,5.5982128E-2,-1.4597303E-1,3.3445168E-1,-1.4994118E-1,-1.9658968E-1,4.9537155E-1,-1.5418147E-1,-1.15905724E-1,9.026813E-2,-1.4604324E-1,1.5218529E-1,5.211413E-1,-1.3221121E-1,4.4032335E-2,-7.338485E-1,2.6647627E-1,6.78018E-2,8.64397E-2,1.6397142E-1,1.9440394E-2,-6.484725E-1,-1.9401681E-1,-2.518298E-1,-5.603097E-1,8.269017E-2,-3.6460358E-1,2.716039E-2],"categories":[],"categories_nodes":[],"categories_segments":[],"categories_sizes":[],"default_left":[1,0,0,0,0,0,0,0,0,0,0,0,0,0,0,0,0,0,0,0,0,0,0,0,0,0,0,0,0,0,0,0,0,0,0],"id":36,"left_children":[1,-1,3,5,7,9,11,13,15,-1,17,-1,-1,19,-1,21,23,-1,-1,25,-1,27,29,31,33,-1,-1,-1,-1,-1,-1,-1,-1,-1,-1],"loss_changes":[2.7681882E2,0E0,3.1405918E1,4.0845337E0,1.8604887E1,3.6618314E0,1.3643265E-2,4.672407E0,2.8472013E1,0E0,1.9901159E0,0E0,0E0,2.993206E0,0E0,7.944988E1,1.5923344E1,0E0,0E0,5.0588036E-1,0E0,2.9424465E1,9.7748566E-1,9.407749E0,1.04328705E2,0E0,0E0,0E0,0E0,0E0,0E0,0E0,0E0,0E0,0E0],"parents":[2147483647,0,0,2,2,3,3,4,4,5,5,6,6,7,7,8,8,10,10,13,13,15,15,16,16,19,19,21,21,22,22,23,23,24,24],"right_children":[2,-1,4,6,8,10,12,14,16,-1,18,-1,-1,20,-1,22,24,-1,-1,26,-1,28,30,32,34,-1,-1,-1,-1,-1,-1,-1,-1,-1,-1],"split_conditions":[4.9979195E1,-1.5484844E-1,3.22278E3,3.21795E3,3.2270261E3,3.21663E3,3.21419E3,5.775443E1,3.29588E3,-1.4597303E-1,1.415E0,-1.4994118E-1,-1.9658968E-1,3.2206165E3,-1.5418147E-1,3.2544128E3,3.2708452E3,-1.4604324E-1,1.5218529E-1,3.22277E3,-1.3221121E-1,3.29476E3,3.2521602E3,3.2946E3,3.2999153E3,8.64397E-2,1.6397142E-1,1.9440394E-2,-6.484725E-1,-1.9401681E-1,-2.518298E-1,-5.603097E-1,8.269017E-2,-3.6460358E-1,2.716039E-2],"split_indices":[16,0,8,5,9,3,7,16,8,0,12,0,0,15,0,15,15,0,0,3,0,0,14,3,14,0,0,0,0,0,0,0,0,0,0],"split_type":[0,0,0,0,0,0,0,0,0,0,0,0,0,0,0,0,0,0,0,0,0,0,0,0,0,0,0,0,0,0,0,0,0,0,0],"sum_hessian":[6.094417E3,1.0259855E3,5.0684316E3,1.2243236E2,4.9459995E3,2.0026173E1,1.0240618E2,1.1756195E2,4.8284375E3,8.745261E0,1.1280912E1,8.9761765E1,1.2644418E1,1.1356304E2,3.9989083E0,8.025565E2,4.0258809E3,1.6454477E0,9.635465E0,1.1095186E2,2.6111834E0,6.382828E2,1.6427377E2,4.5402267E2,3.5718582E3,1.213082E1,9.882104E1,6.3329004E2,4.9927197E0,9.3908E1,7.036578E1,1.0727351E0,4.5294995E2,6.126582E1,3.5105923E3],"tree_param":{"num_deleted":"0","num_feature":"20","num_nodes":"35","size_leaf_vector":"1"}},{"base_weights":[6.2105667E-2,4.353148E-2,4.684529E-1,1.527821E-1,3.863016E-2,5.441172E-1,2.198143E-2,-1.0146364E-1,4.5817968E-2,1.4826679E0,1.5252636E-1,-8.649383E-2,4.341734E-1,9.8827964E-1,-1.3245821E-1,1.287398E-1,3.125312E-2,1.1169953E-1,4.6880326E-1,3.813168E-1,-2.501302E-1,8.539475E-2,7.304159E-1,9.713383E-2,-2.4193583E-1,4.2902768E-1,7.321367E-2,9.030533E-3,1.0010014E-1,2.0833945E-2,3.9590186E-1,-3.3195028E-1,2.59091E-1,-8.1932664E-2,2.6981387E-1,-6.121397E-3,6.626123E-1,-7.593699E-2,3.7565312E-1,9.937944E-2,4.9071735E-1,1.6381796E-2,2.1543166E-1,7.307634E-3,-2.5989546E-2,1.4063296E-1,2.2126134E-2,2.5532582E-1,-6.0679387E-2,4.103925E-2,-1.2270777E-1,4.1462895E-1,-1.10280305E-1],"categories":[],"categories_nodes":[],"categories_segments":[],"categories_sizes":[],"default_left":[0,1,0,0,0,0,0,0,0,0,0,0,0,0,0,1,0,0,0,0,0,0,0,0,0,0,0,1,0,0,0,0,0,0,0,0,0,0,0,0,0,0,0,0,0,0,0,0,0,0,0,0,0],"id":37,"left_children":[1,3,5,-1,7,9,11,13,15,17,-1,19,-1,21,23,25,27,-1,-1,29,31,33,-1,35,37,39,41,43,45,47,-1,49,51,-1,-1,-1,-1,-1,-1,-1,-1,-1,-1,-1,-1,-1,-1,-1,-1,-1,-1,-1,-1],"loss_changes":[6.645553E1,1.9209526E1,1.2990547E1,0E0,8.399789E0,1.0271095E1,8.909644E0,1.3884055E1,9.574434E0,4.4293976E-1,0E0,4.2094913E0,0E0,1.4652849E1,9.997304E0,1.9720043E1,1.0322173E1,0E0,0E0,4.8175893E0,1.7700872E0,2.5924973E0,0E0,3.2020283E1,4.812931E0,2.1241592E1,1.1971844E1,7.4832563E0,1.5956968E1,2.2771056E0,0E0,1.3299673E0,4.8413205E0,0E0,0E0,0E0,0E0,0E0,0E0,0E0,0E0,0E0,0E0,0E0,0E0,0E0,0E0,0E0,0E0,0E0,0E0,0E0,0E0],"parents":[2147483647,0,0,1,1,2,2,4,4,5,5,6,6,7,7,8,8,9,9,11,11,13,13,14,14,15,15,16,16,19,19,20,20,21,21,23,23,24,24,25,25,26,26,27,27,28,28,29,29,31,31,32,32],"right_children":[2,4,6,-1,8,10,12,14,16,18,-1,20,-1,22,24,26,28,-1,-1,30,32,34,-1,36,38,40,42,44,46,48,-1,50,52,-1,-1,-1,-1,-1,-1,-1,-1,-1,-1,-1,-1,-1,-1,-1,-1,-1,-1,-1,-1],"split_conditions":[3.42923E3,1.8014166E1,3.42666E3,1.527821E-1,4.2E1,6.88742E3,7.1816734E1,4.7071427E-1,9.45E-1,5.116638E1,1.5252636E-1,2.0032326E1,4.341734E-1,1.9090574E1,3.3248257E3,3.299252E3,2.19E2,1.1169953E-1,4.6880326E-1,1.51E2,2.87E2,3.3532E3,7.304159E-1,3.31563E3,3.3891416E3,4.6148956E1,3.3645984E3,3.3530767E3,1.4085715E0,1.1085714E0,3.9590186E-1,3.4088438E3,2.6892858E0,-8.1932664E-2,2.6981387E-1,-6.121397E-3,6.626123E-1,-7.593699E-2,3.7565312E-1,9.937944E-2,4.9071735E-1,1.6381796E-2,2.1543166E-1,7.307634E-3,-2.5989546E-2,1.4063296E-1,2.2126134E-2,2.5532582E-1,-6.0679387E-2,4.103925E-2,-1.2270777E-1,4.1462895E-1,-1.10280305E-1],"split_indices":[6,17,7,0,4,5,16,12,12,16,0,17,0,17,13,15,4,0,0,4,4,3,0,5,9,17,15,15,12,12,0,14,12,0,0,0,0,0,0,0,0,0,0,0,0,0,0,0,0,0,0,0,0],"split_type":[0,0,0,0,0,0,0,0,0,0,0,0,0,0,0,0,0,0,0,0,0,0,0,0,0,0,0,0,0,0,0,0,0,0,0,0,0,0,0,0,0,0,0,0,0,0,0,0,0,0,0,0,0],"sum_hessian":[8.806593E3,8.422697E3,3.8389554E2,8.664296E1,8.336055E3,3.2807706E2,5.5818478E1,4.0618555E2,7.929869E3,1.0535384E1,3.1754166E2,5.2743538E1,3.0749404E0,1.037911E1,3.9580646E2,1.1835785E3,6.7462905E3,1.0881478E0,9.447236E0,1.3323493E1,3.9420044E1,7.0422764E0,3.3368342E0,1.27833E2,2.6797345E2,1.8365224E2,9.999262E2,5.1009316E3,1.6453589E3,1.0364157E1,2.9593363E0,3.4262905E1,5.157137E0,5.350314E0,1.691962E0,1.2203063E2,5.802367E0,2.6680627E2,1.167176E0,1.710674E2,1.2584837E1,9.729378E2,2.698843E1,4.397115E3,7.038167E2,1.086185E2,1.5367404E3,1.5989366E0,8.765221E0,4.7288404E0,2.9534065E1,1.4154058E0,3.741731E0],"tree_param":{"num_deleted":"0","num_feature":"20","num_nodes":"53","size_leaf_vector":"1"}},{"base_weights":[-5.0327994E-2,6.288962E-2,-1.5505359E-1,7.9054676E-2,-4.961499E-1,5.6040082E-2,2.1464655E-1,-1.4057617E-1,-1.5560755E-1,9.130875E-2,-7.198996E-1,2.4932194E-1,-3.560926E-1,1.19235516E-1,-1.2904221E-1,2.7592488E-2,1.602492E-1,-1.1613861E0,-1.9417451E-1,-3.26203E-1,2.5546214E-1,3.7088013E-1,-2.2121538E-1,2.5816604E-2,-2.6027253E-1,7.700772E-2,3.228417E-2,-3.591233E-1,-1.1528138E-1,7.805982E-2,-3.3286786E-1,-1.1590584E-1,1.440977E-1],"categories":[],"categories_nodes":[],"categories_segments":[],"categories_sizes":[],"default_left":[0,0,0,1,0,0,0,0,0,1,0,0,0,0,0,0,0,0,0,0,0,0,0,0,0,0,0,0,0,0,0,0,0],"id":38,"left_children":[1,3,-1,5,7,9,11,13,-1,15,17,19,21,-1,-1,23,25,27,-1,-1,29,31,-1,-1,-1,-1,-1,-1,-1,-1,-1,-1,-1],"loss_changes":[3.0072488E2,4.144712E1,0E0,1.3887651E1,9.603214E-1,1.0430994E2,1.2872929E1,1.5819615E0,0E0,1.6004452E1,4.563835E0,5.2806892E0,1.0643137E1,0E0,0E0,9.925886E1,8.857311E0,1.5461159E-1,0E0,0E0,4.217617E0,1.3073869E0,0E0,0E0,0E0,0E0,0E0,0E0,0E0,0E0,0E0,0E0,0E0],"parents":[2147483647,0,0,1,1,3,3,4,4,5,5,6,6,7,7,9,9,10,10,11,11,12,12,15,15,16,16,17,17,20,20,21,21],"right_children":[2,4,-1,6,8,10,12,14,-1,16,18,20,22,-1,-1,24,26,28,-1,-1,30,32,-1,-1,-1,-1,-1,-1,-1,-1,-1,-1,-1],"split_conditions":[5.0011E1,3.36155E3,-1.5505359E-1,3.35367E3,7.657143E-1,3.3327825E3,3.366192E3,3.36419E3,-1.5560755E-1,3.3103442E3,3.32996E3,3.29998E3,3.33853E3,1.19235516E-1,-1.2904221E-1,3.3028086E3,3.3174292E3,3.3344404E3,-1.9417451E-1,-3.26203E-1,5.522013E1,3.33783E3,-2.2121538E-1,2.5816604E-2,-2.6027253E-1,7.700772E-2,3.228417E-2,-3.591233E-1,-1.1528138E-1,7.805982E-2,-3.3286786E-1,-1.1590584E-1,1.440977E-1],"split_indices":[16,5,0,15,12,14,14,5,0,15,3,0,5,0,0,14,15,15,0,0,17,7,0,0,0,0,0,0,0,0,0,0,0],"split_type":[0,0,0,0,0,0,0,0,0,0,0,0,0,0,0,0,0,0,0,0,0,0,0,0,0,0,0,0,0,0,0,0,0],"sum_hessian":[5.691994E3,4.581089E3,1.110905E3,4.4531807E3,1.27908516E2,3.80821E3,6.449706E2,8.056854E0,1.1985166E2,3.6434856E3,1.6472447E2,6.0856055E2,3.6410076E1,2.6886325E0,5.3682218E0,1.894213E3,1.7492725E3,2.1159119E1,1.4356535E2,1.9775685E0,6.0658295E2,1.2536068E1,2.387401E1,1.7789357E3,1.1527736E2,6.162487E2,1.1330238E3,1.9713308E1,1.4458088E0,6.052917E2,1.2912614E0,1.2635705E0,1.1272497E1],"tree_param":{"num_deleted":"0","num_feature":"20","num_nodes":"33","size_leaf_vector":"1"}},{"base_weights":[-4.0951703E-2,-5.0756735E-1,4.37415E-2,-1.5424803E-1,-2.3209465E-1,-1.4988549E-1,5.230193E-2,1.2161593E-1,-1.582874E-1,-9.125736E-3,9.279523E-2,1.1047478E-2,-1.1689202E0,1.4738773E-1,2.0807672E-2,9.552583E-2,-1.5537228E-1,-5.889369E-1,-2.2278662E-1,2.452619E-1,6.500698E-2,-9.214206E-1,6.3668005E-2,5.5850367E-3,9.268429E-2,-2.1823984E-1,7.3283855E-3,9.611472E-2,3.3044867E-2,2.961677E-2,-8.087573E-2,-3.0566755E-1,1.7788943E-2,-4.7416115E-1,2.004549E-2],"categories":[],"categories_nodes":[],"categories_segments":[],"categories_sizes":[],"default_left":[1,1,0,0,0,0,0,0,0,0,0,0,0,0,0,0,0,0,0,0,0,1,0,0,0,0,0,0,0,0,0,0,0,0,0],"id":39,"left_children":[1,3,5,-1,7,-1,9,-1,-1,11,13,15,17,19,21,23,25,-1,-1,27,29,31,33,-1,-1,-1,-1,-1,-1,-1,-1,-1,-1,-1,-1],"loss_changes":[2.2651332E2,1.4797821E0,2.2593102E1,0E0,4.4345245E0,0E0,1.1883978E1,0E0,0E0,4.4442028E1,1.1312803E1,2.6269312E1,9.536926E0,1.31860695E1,5.0256374E1,2.0336246E1,6.473522E1,0E0,0E0,7.5562286E0,1.007135E1,5.2363777E0,6.2687426E0,0E0,0E0,0E0,0E0,0E0,0E0,0E0,0E0,0E0,0E0,0E0,0E0],"parents":[2147483647,0,0,1,1,2,2,4,4,6,6,9,9,10,10,11,11,12,12,13,13,14,14,15,15,16,16,19,19,20,20,21,21,22,22],"right_children":[2,4,6,-1,8,-1,10,-1,-1,12,14,16,18,20,22,24,26,-1,-1,28,30,32,34,-1,-1,-1,-1,-1,-1,-1,-1,-1,-1,-1,-1],"split_conditions":[5.0011E1,4.9979195E1,3.21419E3,-1.5424803E-1,3.31648E3,-1.4988549E-1,3.32394E3,1.2161593E-1,-1.582874E-1,3.32365E3,3.3341287E3,3.2689373E3,3.3028806E3,3.0416908E1,3.35061E3,3.2854412E3,3.2999153E3,-5.889369E-1,-2.2278662E-1,3.3490046E3,3.3281777E3,3.221473E1,3.3344404E3,5.5850367E-3,9.268429E-2,-2.1823984E-1,7.3283855E-3,9.611472E-2,3.3044867E-2,2.961677E-2,-8.087573E-2,-3.0566755E-1,1.7788943E-2,-4.7416115E-1,2.004549E-2],"split_indices":[16,16,7,0,6,0,7,0,0,2,15,15,15,17,7,14,14,0,0,9,15,17,15,0,0,0,0,0,0,0,0,0,0,0,0],"split_type":[0,0,0,0,0,0,0,0,0,0,0,0,0,0,0,0,0,0,0,0,0,0,0,0,0,0,0,0,0,0,0,0,0,0,0],"sum_hessian":[5.7301714E3,8.795137E2,4.8506577E3,8.5811053E2,2.1403126E1,7.4345276E1,4.7763125E3,6.6616683E0,1.4741457E1,1.8979414E3,2.8783708E3,1.8664669E3,3.147445E1,1.6363676E3,1.2420033E3,1.238303E3,6.28164E2,9.73426E0,2.1740189E1,7.469549E2,8.8941266E2,5.31466E1,1.1888567E3,9.1107404E2,3.2722897E2,1.4948431E2,4.7867966E2,4.791714E2,2.6778354E2,8.086347E2,8.077796E1,4.8306595E1,4.840004E0,1.3159639E0,1.1875406E3],"tree_param":{"num_deleted":"0","num_feature":"20","num_nodes":"35","size_leaf_vector":"1"}},{"base_weights":[5.758711E-2,4.4774793E-2,1.5157306E-1,1.517622E-1,4.062952E-2,-1.1290295E-1,4.7035303E-2,-5.0394077E-2,-3.5231915E-1,2.3725169E0,4.357894E-2,-9.082691E-2,1.3349615E0,-4.150622E-1,2.2464874E-1,9.4032425E-1,1.3159461E-1,2.6159304E-1,3.6334317E-2,-4.4642948E-2,1.2107263E-1,-3.219598E-2,9.063616E-1,-1.3371421E-1,-9.69985E-3,3.5380143E-1,-3.7185553E-2,4.5638543E-2,3.7806624E-1,-4.161174E-2,1.5321182E-2],"categories":[],"categories_nodes":[],"categories_segments":[],"categories_sizes":[],"default_left":[0,1,0,0,0,0,0,0,0,0,0,0,0,0,0,0,0,0,0,0,0,0,0,0,0,0,0,0,0,0,0],"id":40,"left_children":[1,3,-1,-1,5,7,9,11,13,15,17,19,21,23,25,-1,-1,27,29,-1,-1,-1,-1,-1,-1,-1,-1,-1,-1,-1,-1],"loss_changes":[4.891411E1,1.583613E1,0E0,0E0,8.0926895E0,4.9155498E0,6.3349907E1,1.4828351E1,2.5578003E0,1.5860138E1,1.2442335E1,7.400279E0,1.8587608E1,7.100496E-1,2.584369E0,0E0,0E0,2.7507545E1,1.9691742E1,0E0,0E0,0E0,0E0,0E0,0E0,0E0,0E0,0E0,0E0,0E0,0E0],"parents":[2147483647,0,0,1,1,4,4,5,5,6,6,7,7,8,8,9,9,10,10,11,11,12,12,13,13,14,14,17,17,18,18],"right_children":[2,4,-1,-1,6,8,10,12,14,16,18,20,22,24,26,-1,-1,28,30,-1,-1,-1,-1,-1,-1,-1,-1,-1,-1,-1,-1],"split_conditions":[6.88742E3,1.8014166E1,1.5157306E-1,1.517622E-1,3.1826E3,3.1820376E3,3.18567E3,3.18112E3,3.1825E3,4.9478127E1,3.22278E3,2.5235715E0,3.3E1,2.77E2,2.7576149E1,9.4032425E-1,1.3159461E-1,3.22147E3,3.23379E3,-4.4642948E-2,1.2107263E-1,-3.219598E-2,9.063616E-1,-1.3371421E-1,-9.69985E-3,3.5380143E-1,-3.7185553E-2,4.5638543E-2,3.7806624E-1,-4.161174E-2,1.5321182E-2],"split_indices":[5,17,0,0,3,13,8,3,7,16,8,12,4,4,17,0,0,3,3,0,0,0,0,0,0,0,0,0,0,0,0],"split_type":[0,0,0,0,0,0,0,0,0,0,0,0,0,0,0,0,0,0,0,0,0,0,0,0,0,0,0,0,0,0,0],"sum_hessian":[8.5312295E3,8.294922E3,2.3630785E2,7.2828384E1,8.222094E3,3.2864218E2,7.893451E3,2.6156183E2,6.708036E1,1.0697395E1,7.882754E3,2.5505234E2,6.509492E0,6.0754192E1,6.3261695E0,7.228673E0,3.4687226E0,2.5239085E2,7.630363E3,2.2890558E2,2.6146759E1,4.0132375E0,2.4962547E0,5.609696E1,4.6572337E0,1.0546914E0,5.2714777E0,2.2849654E2,2.3894312E1,5.918506E2,7.038512E3],"tree_param":{"num_deleted":"0","num_feature":"20","num_nodes":"31","size_leaf_vector":"1"}},{"base_weights":[-4.84773E-2,5.1002774E-2,-1.5435572E-1,6.4166576E-2,-4.9094075E-1,-1.20997675E-1,8.1774846E-2,-1.07813016E-1,-1.5478791E-1,1.796879E-1,-7.068419E-1,1.863895E-1,4.5843184E-2,1.1479194E-1,-1.2341811E-1,2.1222281E-1,-2.3209625E-1,-7.9953825E-1,3.3820298E-1,1.9112837E-1,-4.5172366E-1,-4.984821E-1,7.798073E-2,4.866199E-2,1.3842596E-1,-5.970482E-1,2.60081E-2,-6.302831E-1,-2.2054793E-1,1.4361763E-1,1.384893E-2,4.1888524E-2,9.94827E-2,5.1454615E-2,-3.0026358E-1,-5.1880438E-2,2.988161E-2],"categories":[],"categories_nodes":[],"categories_segments":[],"categories_sizes":[],"default_left":[0,0,0,1,0,0,0,0,0,0,0,0,0,0,0,0,0,0,0,0,0,0,0,0,0,0,0,0,0,0,0,0,0,0,0,0,0],"id":41,"left_children":[1,3,-1,5,7,9,11,13,-1,15,17,19,21,-1,-1,23,25,27,29,31,-1,33,35,-1,-1,-1,-1,-1,-1,-1,-1,-1,-1,-1,-1,-1,-1],"loss_changes":[2.4547217E2,3.1162724E1,0E0,1.390309E1,9.374027E-1,6.538049E1,1.462039E1,1.2911652E0,0E0,3.339507E0,1.2461033E1,8.263462E0,5.0736286E1,0E0,0E0,2.768527E0,1.0518911E1,8.16478E0,4.275006E-1,7.1358566E0,0E0,5.4601776E1,1.4870262E1,0E0,0E0,0E0,0E0,0E0,0E0,0E0,0E0,0E0,0E0,0E0,0E0,0E0,0E0],"parents":[2147483647,0,0,1,1,3,3,4,4,5,5,6,6,7,7,9,9,10,10,11,11,12,12,15,15,16,16,17,17,18,18,19,19,21,21,22,22],"right_children":[2,4,-1,6,8,10,12,14,-1,16,18,20,22,-1,-1,24,26,28,30,32,-1,34,36,-1,-1,-1,-1,-1,-1,-1,-1,-1,-1,-1,-1,-1,-1],"split_conditions":[5.0011E1,3.36155E3,-1.5435572E-1,3.2258252E3,7.657143E-1,3.1826E3,3.24723E3,3.36419E3,-1.5478791E-1,2.83E2,4.9855675E1,3.6E2,3.299252E3,1.1479194E-1,-1.2341811E-1,3.17881E3,2.98E2,3.1842314E3,1.0607142E0,3.23474E3,-4.5172366E-1,3.27348E3,3.27637E3,4.866199E-2,1.3842596E-1,-5.970482E-1,2.60081E-2,-6.302831E-1,-2.2054793E-1,1.4361763E-1,1.384893E-2,4.1888524E-2,9.94827E-2,5.1454615E-2,-3.0026358E-1,-5.1880438E-2,2.988161E-2],"split_indices":[16,5,0,15,12,3,3,5,0,4,16,4,15,0,0,7,4,13,12,8,0,6,7,0,0,0,0,0,0,0,0,0,0,0,0,0,0],"split_type":[0,0,0,0,0,0,0,0,0,0,0,0,0,0,0,0,0,0,0,0,0,0,0,0,0,0,0,0,0,0,0,0,0,0,0,0,0],"sum_hessian":[5.293134E3,4.3627607E3,9.303731E2,4.260163E3,1.0259768E2,3.6943237E2,3.8907307E3,6.6145797E0,9.59831E1,2.445896E2,1.24842766E2,9.936223E2,2.8971084E3,2.4293678E0,4.1852117E0,2.2712888E2,1.7460735E1,1.1488711E2,9.95566E0,9.91732E2,1.8903179E0,1.6070349E2,2.7364048E3,1.9053719E2,3.6591686E1,1.8754014E0,1.5585333E1,3.9242623E0,1.10962845E2,6.289878E0,3.665782E0,7.2715295E2,2.6457907E2,6.9147194E1,9.1556305E1,2.1656418E2,2.5198406E3],"tree_param":{"num_deleted":"0","num_feature":"20","num_nodes":"37","size_leaf_vector":"1"}},{"base_weights":[-3.71842E-2,-1.536513E-1,3.5321284E-2,-1.4887942E-1,4.181572E-2,3.549998E-1,3.3601176E-2,4.1150594E-1,-1.5736365E-1,-4.5137435E-1,4.5472194E-2,5.2316956E-2,4.6310908E-1,-9.834309E-2,-1.0512229E0,2.2773209E-1,2.6952963E-2,1.09329104E-1,-1.6840005E-1,1.4585571E-1,-1.1865965E-1,-3.1972158E-1,3.3429828E-2,-3.8110188E-1,-1.8585089E-1,7.581266E-2,-4.141762E-1,-2.276522E-1,1.5241936E-2],"categories":[],"categories_nodes":[],"categories_segments":[],"categories_sizes":[],"default_left":[1,0,0,0,0,0,0,0,0,0,0,0,0,0,0,0,1,0,0,0,0,0,0,0,0,0,0,0,0],"id":42,"left_children":[1,-1,3,-1,5,7,9,11,-1,13,15,17,19,21,23,25,27,-1,-1,-1,-1,-1,-1,-1,-1,-1,-1,-1,-1],"loss_changes":[1.8746855E2,0E0,1.632642E1,0E0,1.1994642E1,6.1389446E0,2.6208675E1,2.0617962E0,0E0,2.2931345E1,1.4983714E1,3.1282365E0,2.1396484E0,1.4238686E1,3.015499E0,1.679844E1,7.562406E1,0E0,0E0,0E0,0E0,0E0,0E0,0E0,0E0,0E0,0E0,0E0,0E0],"parents":[2147483647,0,0,2,2,4,4,5,5,6,6,7,7,9,9,10,10,11,11,12,12,13,13,14,14,15,15,16,16],"right_children":[2,-1,4,-1,6,8,10,12,-1,14,16,18,20,22,24,26,28,-1,-1,-1,-1,-1,-1,-1,-1,-1,-1,-1,-1],"split_conditions":[4.9979195E1,-1.536513E-1,3.21419E3,-1.4887942E-1,3.2270261E3,5.775443E1,3.23778E3,3.22278E3,-1.5736365E-1,3.23574E3,3.2437148E3,3.21852E3,3.2206165E3,3.2276E3,3.2258252E3,2.5235715E0,3.2521602E3,1.09329104E-1,-1.6840005E-1,1.4585571E-1,-1.1865965E-1,-3.1972158E-1,3.3429828E-2,-3.8110188E-1,-1.8585089E-1,7.581266E-2,-4.141762E-1,-2.276522E-1,1.5241936E-2],"split_indices":[16,0,7,0,9,16,8,8,0,3,15,0,15,7,15,12,14,0,0,0,0,0,0,0,0,0,0,0,0],"split_type":[0,0,0,0,0,0,0,0,0,0,0,0,0,0,0,0,0,0,0,0,0,0,0,0,0,0,0,0,0],"sum_hessian":[5.441947E3,7.198847E2,4.722062E3,5.6083363E1,4.6659785E3,1.1817757E2,4.5478013E3,1.1154362E2,6.6339507E0,1.0777479E2,4.4400264E3,1.4264931E1,9.727869E1,6.8578156E1,3.9196632E1,4.0849194E2,4.0315344E3,9.724836E0,4.540095E0,9.51551E1,2.1235886E0,1.149372E1,5.7084435E1,2.4711807E1,1.4484824E1,4.0307516E2,5.416778E0,1.1786762E2,3.9136667E3],"tree_param":{"num_deleted":"0","num_feature":"20","num_nodes":"29","size_leaf_vector":"1"}},{"base_weights":[5.215243E-2,4.066645E-2,4.3801537E-1,1.5059592E-1,3.728024E-2,5.49368E-1,3.5532266E-2,4.418296E-2,-9.205595E-2,3.4841365E-1,1.5077518E-1,-6.7064226E-2,3.5120288E-1,3.984654E-2,1.4875621E0,6.455069E-1,-1.3152727E-1,3.5657346E-1,-2.2135836E-1,3.146081E-2,3.046797E-1,1.5021743E-1,1.8020804E0,-2.5257635E-1,7.994625E-1,4.4187108E-1,-1.449701E-1,6.6867894E-1,-1.2923706E-1,-3.33857E-1,1.368396E-1,1.2201712E-2,-4.848061E-2,-8.488289E-3,1.4120135E-1,3.1651568E-1,-1.23663284E-1,1.0142909E-1,5.718959E-1,3.8336273E-2,-1.2311198E-1,-1.2059084E-1,-2.2058794E-2,-3.6140483E-2,3.9370486E-1,2.2976946E-2,-1.2557061E-1,4.2735454E-1,-8.32292E-2],"categories":[],"categories_nodes":[],"categories_segments":[],"categories_sizes":[],"default_left":[0,1,0,0,0,0,0,0,0,0,0,0,0,0,0,0,0,0,0,0,0,0,0,0,0,0,0,0,0,0,0,0,0,0,0,0,0,0,0,0,0,0,0,0,0,0,0,0,0],"id":43,"left_children":[1,3,5,-1,7,9,11,13,15,-1,-1,17,-1,19,21,23,25,27,29,31,33,35,37,39,-1,-1,41,43,-1,45,47,-1,-1,-1,-1,-1,-1,-1,-1,-1,-1,-1,-1,-1,-1,-1,-1,-1,-1],"loss_changes":[3.6860474E1,1.260555E1,1.0755775E1,0E0,7.1673584E0,4.8064766E0,6.2709546E0,4.7621307E1,1.1929452E1,0E0,0E0,3.3282082E0,0E0,1.6859772E1,9.315426E0,3.8461082E1,8.560745E0,3.6434958E0,1.5389026E0,1.3102753E1,1.2892754E1,3.1984096E0,2.1573257E0,9.72893E-1,0E0,0E0,7.03384E0,5.324028E0,0E0,1.0226378E0,5.497996E0,0E0,0E0,0E0,0E0,0E0,0E0,0E0,0E0,0E0,0E0,0E0,0E0,0E0,0E0,0E0,0E0,0E0,0E0],"parents":[2147483647,0,0,1,1,2,2,4,4,5,5,6,6,7,7,8,8,11,11,13,13,14,14,15,15,16,16,17,17,18,18,19,19,20,20,21,21,22,22,23,23,26,26,27,27,29,29,30,30],"right_children":[2,4,6,-1,8,10,12,14,16,-1,-1,18,-1,20,22,24,26,28,30,32,34,36,38,40,-1,-1,42,44,-1,46,48,-1,-1,-1,-1,-1,-1,-1,-1,-1,-1,-1,-1,-1,-1,-1,-1,-1,-1],"split_conditions":[3.42923E3,1.8014166E1,3.42666E3,1.5059592E-1,3.38975E3,6.88742E3,7.1816734E1,3.38937E3,1.0742857E0,3.4841365E-1,1.5077518E-1,2.0032326E1,3.5120288E-1,3.3645984E3,3.7E1,8.2E1,3.38742E3,1.775E0,2.66E2,3.3591702E3,3.3429148E3,3.6E1,4.9478127E1,3.4206E3,7.994625E-1,4.4187108E-1,3.39129E3,1.16E2,-1.2923706E-1,3.4088438E3,2.4607143E0,1.2201712E-2,-4.848061E-2,-8.488289E-3,1.4120135E-1,3.1651568E-1,-1.23663284E-1,1.0142909E-1,5.718959E-1,3.8336273E-2,-1.2311198E-1,-1.2059084E-1,-2.2058794E-2,-3.6140483E-2,3.9370486E-1,2.2976946E-2,-1.2557061E-1,4.2735454E-1,-8.32292E-2],"split_indices":[6,17,7,0,8,5,16,6,12,0,0,17,0,15,4,4,3,12,4,15,11,4,16,8,0,0,0,4,0,14,12,0,0,0,0,0,0,0,0,0,0,0,0,0,0,0,0,0,0],"split_type":[0,0,0,0,0,0,0,0,0,0,0,0,0,0,0,0,0,0,0,0,0,0,0,0,0,0,0,0,0,0,0,0,0,0,0,0,0,0,0,0,0,0,0,0,